3349 50
人 -0.23110828 -0.23426785 -0.102409095 -0.06258899 -0.025609104 -0.14936584 -0.034570836 -0.1703983 0.056198407 -0.15679437 0.052296437 0.048094347 0.17146674 -0.24414216 0.11293167 -0.038927708 -0.016385145 -0.23275448 -0.005938232 0.09635013 0.067080125 -0.16763411 0.043745503 -0.023316428 0.06548765 -0.10434663 -0.07010748 -0.2416797 0.1567993 0.04498949 -0.018559717 0.001623027 -0.2140229 0.09731359 -0.08278844 -0.16120356 0.024441516 -0.3662634 -0.1104231 -0.06537155 -0.1207792 -0.063855596 -0.040696375 -0.050523642 0.047049943 -0.009353682 0.13654357 -0.054720268 0.16192052 -0.022136107
人口 -0.091541454 -0.24623154 0.1490633 -0.06643427 -0.076263145 -0.073309265 -0.13155094 -0.2360031 -0.17759098 -0.13197076 0.048935965 -0.015624304 0.28252017 -0.11530201 0.08159187 0.010975301 0.046574824 0.014432401 0.02395723 -0.06662005 0.13192713 -0.056215465 0.09796021 0.11247834 0.10489657 0.14011756 -0.22159915 -0.24763937 0.047571912 0.04803654 0.07704772 -0.018715054 -0.046134904 0.1254906 -0.030184623 -0.020955356 -0.0482352 -0.2555914 0.040074866 -0.31235388 -0.037897922 -0.15263854 0.037771963 0.12347781 -0.13718835 0.1602605 0.16800179 -0.07219113 0.10917553 -0.31894732
小行星 -0.17349419 0.001957778 0.0074662194 0.002543223 0.17291203 0.04101674 -0.08704398 0.015876427 -0.11635652 -0.1056575 0.20010638 0.1382051 0.051004685 0.052198622 0.12987454 0.1971705 0.17485526 0.16181603 0.08228307 -0.004579209 0.16260034 0.21767682 -0.004992813 0.059673853 -0.14153305 0.33559075 -0.13112074 -0.21662134 0.027116835 -0.045097668 0.31512454 -0.21022353 0.043172345 -0.019071385 -0.09589185 0.09617469 0.116616 -0.02205997 0.009848818 0.13387173 0.037377708 -0.1269272 -0.1655714 0.18439496 0.06020882 0.0051014572 0.012136418 -0.18287165 0.24983793 -0.044550035
大学 -0.28468183 0.07750544 -0.014284063 0.25067377 0.17792672 0.13935152 -0.017944692 -0.030126099 -0.13450262 0.19188601 0.08410773 -0.024988864 0.16445263 -0.058674887 0.07069394 0.07682215 0.10062501 -0.28518087 -0.04915409 0.03056594 -0.01680163 0.14002913 0.021524638 -0.07249245 -0.047110237 0.09038103 0.04593805 0.023989327 -0.2281567 -0.011943735 0.03588976 -0.09479508 -0.046267882 0.12423862 -0.1831902 0.08844599 -0.08475476 0.12876984 -0.059107285 -0.071296185 0.028353803 -0.18766095 0.1424418 -4.501082e-05 -0.150835 0.15695834 -0.14695881 0.007152781 -0.34651113 -0.1650825
国家 -0.031518474 -0.07398161 0.12808385 0.22491708 -0.10914023 -0.067334354 -0.117931366 0.020432271 0.14092469 0.023430675 -0.118478 -0.062105462 0.020035371 0.22700062 -0.031281427 -0.05213676 0.10450923 0.06566033 -0.11019129 0.11301611 -0.17557761 -0.14797027 0.06839241 0.091013245 -0.060821965 3.350526e-05 -0.0027685054 -0.08941797 0.065544575 -0.0739393 -0.21933454 -0.16635267 -0.13041165 0.3214645 0.024794426 0.12254095 -0.16589162 0.15436535 0.18244705 0.03239675 -0.04201705 -0.004653007 -0.09688362 0.19102168 -0.052051842 -0.07730734 0.031268384 0.019103065 -0.19280472 -0.21541665
公司 -0.050922625 0.021370664 -0.029272206 -0.051905535 -0.172965 0.0038809702 -0.12532523 0.0992953 -0.14036368 0.015063785 -0.2064159 0.19400507 -0.13780916 0.07089119 0.04898808 -0.025856405 -0.21966611 0.23676097 -0.13491498 0.004274383 -0.1935964 0.3039538 0.09757793 0.00073835254 0.308534 -0.03810755 -0.07568316 0.16091166 -0.1246731 -0.06845258 0.14851373 -0.019725256 0.10409242 0.0049742386 -0.013816995 0.088431336 -0.06554711 0.1522547 0.1700881 -0.10654512 0.084335625 -0.16642916 0.027910423 0.14589812 0.12054136 -0.08343891 0.08928223 0.24591008 -0.16098696 0.08838538
地区 -0.030688344 -0.15772772 0.22888272 -0.057022646 -0.15942198 0.0792906 -0.13043998 0.034366086 -0.047387756 -0.13908863 0.056587595 -0.019275479 -0.015154034 0.16850059 -0.03552686 0.07075567 0.3155605 0.0627069 -0.090517394 0.005068641 -0.13491729 -0.23265278 0.0012669787 0.31816092 0.12659234 0.0071707144 -0.086872384 -0.13931404 0.109957 0.11517162 -0.14257474 0.113338396 0.022728894 0.104274355 -0.049886767 -0.008205224 -0.11517723 0.13603932 0.15457064 -0.19112596 0.068781585 0.014979064 0.03613981 0.16345 -0.3440372 0.04232396 -0.004616931 0.015943348 0.15846309 -0.2217257
世界 -0.07860938 -0.10626015 0.13496247 0.19766714 0.0036990047 0.1953575 -0.0012539327 -0.3533634 0.004807053 0.093444064 0.07828736 0.083778575 0.12138936 0.026215732 0.018110737 -0.036553472 -0.18252774 0.015193723 0.26670495 0.082535945 -0.11732366 -0.08462468 -0.112782545 0.005470274 0.05624562 -0.11262124 0.06891671 0.03404434 -0.041773114 -0.037743438 -0.2196981 -0.10662839 0.009158185 0.18734728 0.011698231 -0.020247057 -0.100695945 0.049745932 -0.072789475 0.056433298 0.08636562 0.26714844 -0.020863183 0.01208099 -0.21525827 -0.17736536 0.17921534 0.00803603 -0.11956201 -0.109061755
政府 0.0617793 -0.046462975 -0.13171305 -0.10308769 0.08049269 -0.029586297 -0.28598195 0.20900336 0.087477446 -0.06802383 -0.19612327 0.018387873 -0.064024806 0.09569462 -0.24741232 0.08707649 0.04884317 0.064702205 -0.15315467 0.10616681 -0.12668091 -0.216888 0.07548741 0.016811952 0.04889947 -0.24590723 0.0009412579 -0.052281775 0.088198215 -0.03891861 0.09911958 -0.21183383 -0.095236406 0.31582376 -0.07412886 0.08163965 -0.14852995 0.11855413 0.29842016 0.06410789 -0.02007946 -0.117235154 0.008176284 0.03449891 0.07725586 0.16257107 0.01997207 0.07688677 -0.09120244 -0.24367066
国际 -0.054850124 -0.00795272 0.034910083 0.14836259 -0.1348227 0.11457521 -0.21335302 -0.0131942555 0.08718449 0.1088019 -0.04641991 0.1102161 0.10038941 0.14328948 0.09759908 -0.03153597 -0.048159122 0.051732257 0.050974086 0.049084585 -0.21172826 0.19586302 0.06542633 -0.08478304 -0.12165526 0.0070910603 0.047803387 0.008998856 0.05113788 -0.14950752 -0.094624124 -0.32690445 -0.0877216 0.122855745 0.2204023 -0.011648029 -0.16224994 0.120969094 0.06973132 0.07495116 0.15588462 0.14122091 0.035390772 0.12898071 -0.20534155 0.044343337 -0.10608478 0.26382032 -0.058071274 -0.099842295
系统 -0.03369236 0.32446975 0.08840382 0.0012036934 -0.04657125 0.05472807 -0.03738132 0.15783252 -0.10328222 0.1149288 0.045087628 0.16780016 0.07526549 0.1519433 -0.030605216 0.14946371 -0.15812637 0.35532486 -0.118287824 -0.07784259 0.07410951 -0.006816283 -0.14026944 -0.149367 -0.076477766 -0.020925269 -0.23070157 0.16609661 -0.09358857 -0.2826691 0.10884181 0.02282774 0.15135583 -0.1065858 -0.055411913 0.20307851 -0.14129356 -0.17855775 -0.07141611 -0.14926437 0.16092432 -0.072116286 -0.107682884 0.110988244 -0.116749495 0.057082444 -0.008194588 -0.12170369 0.15610309 -0.028508488
电影 0.042220548 -0.21185866 -0.049274042 0.15885818 0.030228116 -0.016756028 -0.0904862 0.06280534 0.074614726 0.037590083 0.16491938 -0.032134715 -0.2501114 0.07005565 0.08212292 -0.25518933 -0.15524578 -0.022678226 -0.025869388 -0.22081937 -0.16748849 0.07729504 0.063617274 -0.0781123 -0.012039691 0.047433995 0.22963928 0.18680674 -0.10275979 0.096504 0.039216716 0.00019552559 -0.0010063685 -0.13512552 -0.010662869 -0.113067605 -0.010122281 0.095381185 0.044785842 0.18246093 0.1367614 0.014185635 0.2757017 0.031140305 0.2941076 -0.075994775 0.29963592 0.18035638 0.03947865 0.26342914
市镇 -0.1740638 -0.32787418 0.0013347417 -0.15593016 -0.049386363 -0.043180063 -0.039251037 -0.121649586 -0.019595873 -0.17049564 -0.038348228 0.0647661 0.19686276 0.022910632 0.071230575 -0.026184432 0.060882837 -0.17459056 -0.20518963 -0.06434807 0.17144258 0.06927083 -0.09202665 -0.02384843 -0.10598308 -0.057440244 -0.1272099 -0.12173045 0.08606804 -0.03823415 0.058029912 0.07246244 -0.2782798 -0.12973708 -0.30115083 0.00549997 0.065564476 -0.20520815 0.2401815 0.01668738 0.14019984 -0.014825024 -0.15027891 0.31834814 -0.054267913 0.02512436 0.07124255 -0.10304426 0.074512616 0.109989166
时间 -0.02935433 0.29406428 0.030266589 -0.14128155 0.013498308 -0.19667237 0.3414796 0.2555903 0.033187203 0.15496801 0.028897114 0.18589011 -0.13480847 -0.22715224 0.07437621 0.16853742 0.12531717 -0.0036620162 0.11234405 -0.17679094 -0.13258722 -0.17228064 -0.062799916 0.09045411 -0.07827401 0.0071201622 0.15082704 0.15812927 0.005646065 -0.01235741 -0.082548186 0.08063683 0.11191782 -0.13961868 0.24913603 0.1884197 -0.12029572 -0.04696084 -0.068299904 0.07663427 0.049068853 -0.007568814 0.079101615 -0.028431352 0.03199648 -0.06520341 0.14984113 -0.084890984 0.0655965 -0.1034361
总面积 0.05915016 -0.31665212 0.040142633 -0.024789397 -0.08942327 -0.345077 -0.15180549 -0.008671146 -0.19975229 0.016023897 0.030982256 0.01240918 0.0086617675 -0.04802117 0.04759253 -0.057580806 -0.043298215 -0.18389273 -0.26923975 -0.04586213 0.27803698 -0.070581585 0.008675829 -0.06554037 0.013062723 0.10129147 -0.23595454 -0.475877 0.075475276 0.077431366 0.08608247 -0.10469939 0.08019902 0.108409576 -0.085511245 0.15595224 -0.024333641 -0.15217037 -0.1704362 -0.15177682 -0.078340754 0.05146733 -0.05239161 -0.045712687 -0.18172306 -0.01096669 0.122984365 -0.05883781 0.0026878193 -0.012660332
车站 0.1361346 0.028228179 -0.006765336 -0.15673007 -0.14719564 -0.14787015 0.0038524251 0.010382565 -0.24728921 -0.2735088 -0.047335852 0.129197 0.16813782 -0.054172263 0.07751754 0.03145791 0.15670861 0.08578288 -0.04851493 -0.17324531 0.26526234 0.10820145 -0.097279966 -0.10387996 0.0017920509 -0.15761359 0.10416114 -0.26391646 -0.09682489 -0.19620727 -0.03682348 0.04847224 0.2023421 -0.19119357 -0.22701862 0.1982595 0.06379635 0.051749077 0.038414158 -0.16783085 -0.15871939 0.06313521 0.097660035 0.058333367 -0.21688205 0.1080759 -0.07110442 0.15858245 -0.0044553797 -0.05791983
中心 0.0968961 -0.034519702 -0.0006770268 0.024772309 0.03295871 0.027626485 0.043897346 0.016604893 -0.09895386 0.2790279 0.044539124 -0.027614534 0.16776201 0.15396495 0.004308477 0.08797516 0.09666188 0.15731099 0.070849374 -0.013978206 -0.13390169 -0.06028112 -0.064265326 -0.18929131 0.04376518 0.068136185 -0.20617978 -0.16418162 -0.15217784 0.019576311 -0.054191664 -0.1750104 0.1529159 -0.023081392 -0.124094054 0.025518939 0.016528454 0.18249473 -0.14050543 -0.05399426 -0.05147152 0.023891374 0.18904284 0.27133697 -0.4269113 0.1332641 0.02496149 0.046838053 -0.05530598 -0.29632753
世纪 -0.01153913 0.028703848 0.065698326 0.061462294 0.22739914 0.10934071 0.03206972 -0.09633756 0.12255626 -0.035147894 0.13158745 0.1029903 0.015172586 0.1286394 -0.14078605 -0.22360781 0.0110226255 0.057655685 -0.044855386 -0.05496526 0.02612282 -0.109674215 0.016606972 0.302307 0.21252662 0.11520999 0.009504685 -0.18054669 0.08048654 0.014250353 -0.15156643 0.22006032 0.029610028 -0.12252159 -0.10033201 0.05387017 -0.08230618 0.30358958 0.022876713 -0.05421747 0.04539158 -0.20412104 0.2664581 -0.1174615 -0.123255715 -0.11135224 0.079582185 -0.026737694 -0.07513057 -0.20181243
城市 0.024424681 -0.20813502 0.0788064 0.040705435 0.076355055 -0.09354464 -0.16116098 -0.04430872 0.05236642 -0.096508 0.04086661 0.10610478 0.0688741 0.055523604 0.06918357 -0.05607574 0.07392334 0.16468155 0.11049967 -0.07680728 0.08237199 -0.16396809 -0.025422819 0.28424755 0.12369706 -0.038613603 -0.09624174 -0.018783856 -0.1299475 -0.020845942 -0.019264374 0.023666322 -0.14181373 0.027082555 -0.18475689 0.0380568 -0.03890269 -0.05226554 -0.056513324 -0.00309306 0.09319494 0.010891493 0.31896594 0.2657476 -0.3738799 0.09727399 -0.06922044 0.08252887 0.101875275 -0.25474805
作品 0.010858305 -0.14161174 0.0022605024 -0.004585333 0.073637135 0.037924968 0.10040055 -0.044284165 0.0145748705 -0.14495158 0.16876473 -0.1299962 -0.1386062 -0.07138593 0.053861905 -0.27749288 -0.32967728 -0.09751881 0.12811173 -0.19265974 0.11628361 0.03836459 -0.022255383 -0.16163586 0.092153214 0.16249084 0.16563028 0.051341955 0.055413153 -0.03406411 -0.024628315 0.03040482 0.118352704 -0.049083404 -0.093657106 0.043268517 -0.061960734 0.25158602 0.012970753 0.118349284 0.16169514 0.0075507015 0.23302844 -0.24800128 0.32032624 -0.22446302 0.108234584 0.04679795 0.113722645 0.0014460329
历史 -0.056771547 -0.044002175 0.06657335 0.15731074 0.19039384 0.066978 0.10506433 -0.123425916 -0.046195343 0.19245829 0.23315708 -0.043645322 -0.07018578 0.104745805 -0.025064759 -0.022717934 -0.032651454 0.03724373 0.13016507 -0.08357727 0.06738206 -0.058518518 -0.002939403 0.13166836 0.005626539 -0.019852348 0.09110384 -0.12017956 0.103410006 -0.2074441 -0.33965445 0.22469486 -0.142742 0.11031394 -0.13887936 -0.25116453 -0.08426162 0.2209457 0.073262885 -0.021664746 0.059763923 0.041605808 0.26898074 0.019554213 0.08519574 0.04347945 -0.0008107014 -0.1873926 -0.1596238 -0.23058532
时期 0.022036612 -0.10434304 0.16971844 -0.03857941 0.18073191 0.06878222 0.02751651 -0.046499357 0.07790852 -0.05743128 0.07748368 -0.028569054 0.03570256 0.22303233 -0.05606802 -0.068531975 0.1328845 -0.0953648 0.13175078 -0.016810056 -0.044758167 -0.19661207 0.06828575 0.26099637 0.005840946 0.16962148 0.21387318 -0.11414434 0.13884899 -0.033594884 -0.06847359 0.31705987 0.011349533 0.006708797 -0.101692334 -0.039464094 -0.008393623 0.31688845 0.15292759 -0.08561546 -0.11488609 -0.12326935 0.2574579 -0.21436028 0.08091434 0.059996396 0.015705623 -0.09548253 -0.17261155 -0.20300418
音乐 0.0899865 -0.08189185 0.09578336 -0.055610724 -0.15121366 0.0908465 0.27246 0.032354362 -0.086848564 0.03615908 0.28049478 -0.22303265 0.04799815 0.048633747 0.013739452 -0.082264885 -0.078007594 -0.0748068 0.07329469 -0.09963592 -0.09334048 0.0026748888 0.08822465 -0.037361205 0.07253016 0.2001254 -0.0418504 0.124385014 -0.10251491 0.13643089 -0.042888563 -0.09550697 0.03023858 -0.12633711 -0.05271013 0.039690465 0.0765438 0.18175034 -0.11613612 0.0779006 0.32868484 -0.15951347 0.32837147 -0.18003832 0.23206203 -0.20877612 -0.09544639 0.20209114 -0.20076555 0.007660363
问题 0.08883249 0.3305885 -0.005304605 -0.015617825 0.1622202 0.12334068 0.022189349 0.33080822 0.2901805 0.1667794 -0.06184716 0.16557229 -0.122781605 -0.06483922 -0.124146655 0.02721456 0.03687078 0.07374361 0.00074998103 -0.004658729 -0.06254524 -0.040420055 0.043133173 -0.04494812 0.14091857 -0.14950423 0.09549576 -0.026597794 0.11352366 -0.13829473 0.06278666 -0.1653722 -0.17254731 0.1822083 0.04805561 0.13026983 -0.26552522 -0.23118079 -0.030660173 -0.0823504 0.019774606 -0.016088746 -0.124703154 0.11958349 0.3237924 -0.036415555 0.14967719 0.0056767054 0.14193442 -0.2877904
足球 -0.18309964 0.08836448 0.10387023 0.09777397 -0.09763755 -0.016264759 -0.21017352 0.022071179 -0.051124655 0.22340555 -0.1365548 -0.09983619 0.1327674 0.1582195 0.2109754 -0.07026029 -0.13425449 -0.088657424 0.13081992 0.28713876 -0.061286636 0.09617801 -0.0076568983 0.296107 -0.32935345 -0.0203887 0.082998745 -0.0072783977 0.14945178 0.15190221 0.047925882 -0.12853363 -0.060672432 -0.090943456 -0.086089976 0.03748204 0.05626693 -0.031960413 0.025809124 0.034857336 0.13225748 0.12832674 0.09624189 0.20145898 -0.08680418 0.06252682 -0.073782325 0.082074925 -0.11975324 0.18924013
文化 0.16284317 -0.24697787 0.1337014 0.085873105 0.05438262 0.21777423 0.10077633 -0.11064306 0.14307576 0.08987558 0.2565736 -0.2055012 0.116178654 0.20643148 0.068581775 0.07258046 -0.003506165 0.042914584 0.065208785 0.031192465 0.054029826 -0.02439158 0.022203043 -0.090845555 0.19177441 -0.014554955 0.10271914 -0.11715003 0.11871383 -0.055799086 -0.24931517 -0.08582964 -0.0981677 0.121409945 -0.21587011 -0.14942183 -0.008815447 0.31299278 0.025228009 0.014383022 0.12980781 0.03540721 0.29161876 0.16666208 0.0050933138 -0.077382885 0.015226454 -0.06291291 -0.00075782835 -0.16945177
密度 0.10391807 -0.30825144 0.0073089674 -0.09914922 0.047050208 -0.07341732 -0.20514542 -0.027224533 -0.01949342 -0.047710642 0.29561487 0.16238856 0.20449336 -0.15159786 0.23434284 0.02840337 -0.078806885 -0.07314403 -0.043902874 0.0097949095 0.14984187 0.16502623 0.019782647 -0.12777579 0.026624378 0.06725067 -0.23956972 -0.10865128 0.26583302 -0.077266514 0.048342012 -0.025711097 0.00048029795 -0.057962097 0.0859588 0.092615016 0.007605456 -0.22086754 -0.109781176 -0.05692967 0.051595073 -0.12010517 -0.1789231 0.11428854 -0.18721633 0.2033126 0.1901389 -0.029201787 0.2860635 -0.023658141
冠军 -0.07440071 0.027251825 -0.008436073 0.15878502 -0.12985641 0.09566642 0.13724184 -0.31084383 -0.03238166 0.13174185 0.086691394 -0.12832788 0.06028955 0.05045921 0.20490281 -0.013510756 -0.09053646 -0.17594674 0.24716333 0.05819335 -0.2925278 0.10396956 -0.058266528 0.32886493 -0.2876637 0.016216785 0.0018547736 0.03471332 -0.1216698 0.061608948 -0.10811108 0.055674758 0.11899084 -0.055576436 0.09958142 0.008511759 0.06599365 -0.22563344 0.13928717 -0.032685388 0.04098107 0.107638195 0.008684687 -0.03988299 0.1719258 -0.10814707 -0.16441217 0.052838705 -0.20055397 0.033627793
游戏 -0.07976331 -0.052900385 0.19416657 -0.18095517 -0.15957907 0.064193435 0.058190085 0.008674547 0.016721249 0.016100839 -0.0779726 0.017562889 -0.2719465 -0.050682142 -0.13756943 -0.07038745 -0.18296847 0.054378554 0.16780305 -0.019594751 -0.008958019 0.18517828 -0.14239089 -0.14151928 0.016064057 0.08594008 0.035409108 0.23048131 -0.07917753 -0.11442628 0.043422002 0.105565906 0.16726182 -0.12337798 -0.1863966 -0.14707085 -0.099023886 -0.2116076 0.06644207 0.29586062 0.28872523 -0.062386796 0.06135617 -0.11878805 -0.0642241 -0.25425452 0.08572717 0.044564523 0.22929333 -0.02875343
面积 0.19799086 -0.13746002 0.05171984 0.012896553 -0.052233882 -0.09813374 -0.13897884 -0.20190552 -0.06487919 -0.032956146 0.1374192 0.08884156 0.07076917 -0.053967647 0.052797653 -0.09338708 0.081954196 -0.016972162 -0.04930018 -0.24858809 0.20413464 -0.04946395 -0.15526581 0.18232472 0.0025443584 0.11686303 -0.1492562 -0.19387457 0.08304228 0.067496456 0.11509071 -0.062166512 0.16633353 0.15577918 -0.12554103 -0.060151964 0.062462673 -0.14664552 -0.09772204 -0.23823275 -0.0033187345 0.068527415 -0.11646431 0.22692797 -0.28478265 0.38549578 0.08621137 0.0024436861 0.00888031 -0.08453099
联赛 -0.21676868 0.15559867 -0.08045739 0.17523073 -0.04026127 -0.115806825 0.030040026 0.08712709 0.1663552 0.19493754 -0.16089185 -0.17106876 -0.00092694536 -0.015564725 0.18777725 -0.08277028 -0.027527198 -0.10113421 0.055773254 0.07741901 -0.037692092 0.1421548 -0.035960775 0.3949167 -0.2302213 -0.23898552 0.10596308 -0.029789835 -0.085657254 -0.011313282 0.01771733 0.06281634 0.18475907 -0.19511506 0.036137316 0.07406511 -0.038490623 -0.07790821 0.22326079 -0.13026787 0.15493295 0.06245278 -0.031776845 0.11940552 -0.06854743 0.020647362 -0.25032496 -0.0945528 -0.08035917 0.0053052753
线 0.18726254 0.12737706 0.08416416 -0.075802505 -0.070763856 -0.11271066 0.010141209 0.06564355 -0.08794798 -0.22632526 0.013970412 0.052188292 -0.07981232 -0.017933708 -0.1024731 0.24268813 0.26893947 0.08500233 -0.019730046 -0.13559149 -0.06102418 0.23052105 -0.25630602 -0.15249012 -0.06086109 -0.029479496 0.12792425 -0.16142268 -0.052959 -0.23479433 0.16536851 0.09686293 0.12594971 -0.25699878 -0.17204429 0.1319276 -0.1478748 -0.18667321 -0.021047192 -0.038871612 -0.011269426 0.13838309 -0.028151236 0.24218963 -0.112132564 -0.06447114 -0.02883409 0.15428898 0.077971384 0.0030860864
学院 -0.08842909 -0.07191962 -0.12219786 0.16684839 0.13889176 0.008897524 0.028001081 0.10195495 -0.023394754 0.2534601 0.22705418 -0.0646573 0.06612946 0.014443785 0.14151901 -0.12820213 0.047332108 -0.16987568 -0.14604202 0.0681243 0.0045555457 0.042185813 0.009356078 -0.1241741 -0.1413506 0.12197292 -0.09850786 0.115385994 -0.27562338 0.041879557 0.064740315 -0.13841788 0.020286148 0.030066475 -0.09930136 -0.039062623 -0.1691836 0.269996 -0.013864566 -0.010586347 -0.021026663 -0.23557457 0.18338543 -0.056646515 -0.08110845 0.07821725 -0.19527033 0.13531545 -0.3710408 -0.00089760125
计划 -0.07560417 0.124043345 -0.0587256 -0.11654164 0.10891382 -0.18820778 -0.04857576 0.004387349 0.101003364 0.11135495 -0.054834493 0.21722426 -0.28314227 0.025809046 -0.091805965 0.090374105 0.07735734 0.20303375 -0.099698626 0.18582056 -0.121733114 -0.007254023 -0.030051611 -0.13652907 0.07055704 -0.026762165 0.20357126 -0.0047240853 -0.178832 -0.18291828 0.32926986 -0.383798 -0.08007635 0.1963768 -0.14479503 0.18788224 -0.021693587 0.006968688 0.045707505 -0.08824218 -0.018698607 0.04409747 0.014402889 0.087827176 -0.029513892 0.061489876 0.18872488 0.0373047 0.06499882 -0.20590743
战争 -0.022479445 -0.17147128 -0.023370376 -0.12538636 0.09019226 -0.08219546 -0.066701084 0.06875828 0.24907912 -0.08448933 -0.09490074 0.1538385 -0.06323718 0.14389881 -0.17930695 -0.15804261 0.26942492 -0.03623213 0.19546327 0.1653252 -0.16677274 -0.25121263 -0.10114898 0.15962699 0.07218051 0.0006590728 0.019466262 0.018851891 -0.044976905 -0.24699192 -0.05616676 0.16296668 -0.24285688 0.21373844 -0.062296804 -0.10285462 -0.10831122 0.086666815 0.17965257 0.018580314 0.06757115 -0.088250235 0.00082955323 -0.19967759 0.16018286 0.047083363 0.20221381 -0.015421219 0.05769524 -0.08055535
学校 -0.30253035 0.10157867 0.019407816 -0.019313857 0.043945402 -0.096378475 0.039592795 0.13072625 0.00063797086 0.21765977 0.035755146 -0.0281199 0.1507915 0.08240904 0.1065732 -0.17426582 0.08590164 -0.177469 0.039318573 0.18483599 0.08378941 -0.13221434 0.12351797 -0.078462824 0.020651273 0.053163588 0.18309027 0.15681362 -0.2114481 0.22618625 0.08178978 -0.24061397 0.08095251 0.06437908 -0.17959687 -0.025348825 -0.06068211 0.06050533 0.03328782 -0.09978604 -0.0077893585 -0.15092553 0.22906199 -0.17233303 -0.073648825 0.20064251 -0.17586091 0.07657947 -0.3073553 -0.13636553
镇 0.100648955 -0.3561898 -0.08926789 0.026239872 0.15345222 -0.034149848 -0.27806276 -0.100214615 -0.13651453 -0.034776255 0.072865814 -0.05364751 -0.16392183 -0.010605697 0.08171074 0.005671885 0.22299536 -0.10450925 0.00766965 0.12916796 0.07489636 0.042018443 -0.20224297 -0.08721144 0.0759373 -0.028617546 -0.24555995 -0.24193168 0.19929282 0.023838928 0.028712824 0.11068544 0.023379374 -0.079368755 -0.13963069 -0.22894664 -0.035841495 -0.21165743 0.18361999 -0.16810387 -0.062255844 0.0010778308 -0.04597844 0.13523273 -0.06812376 0.15221068 0.03348105 -0.001460081 0.16966215 -0.012659803
总人口 -0.016161568 -0.144827 0.05515278 -0.06567177 0.008871686 0.073137894 -0.19576669 -0.07262996 -0.18035442 -0.06593339 0.029292587 -0.18174937 0.32199803 -0.19471137 0.0717375 -0.10791402 0.06144715 -0.063980654 0.034301955 -0.022507258 0.089589834 0.10770339 0.021331687 -0.009317994 -0.022496581 0.18082386 -0.3261003 -0.39213014 0.12021369 -0.0557637 0.051933177 0.09727058 0.033722915 0.09786677 -0.07280391 -0.20238332 -0.011069089 -0.33974612 0.11986916 -0.1702984 0.11324409 -0.096267916 -0.06624655 0.05798475 -0.07355411 0.08049059 0.0071592834 0.10000941 0.05108334 -0.070684195
关系 0.10043843 -0.16005015 0.1619258 -0.048580058 0.0963344 0.28325903 -0.015121627 0.24916092 0.17729664 -0.0027754102 -0.036405265 0.15394098 0.16351572 -0.132041 0.12444939 -0.00043137372 0.2372213 0.039197713 -0.076055154 0.0053427834 -0.03953024 0.1405873 0.06557424 0.13786179 0.07004487 -0.2168396 0.015573382 0.2600545 0.10773159 -0.14120832 -0.15017658 -0.2520948 -0.29741514 0.22101313 0.026522778 -0.1604265 -0.017181687 0.120305136 -0.12161371 0.037671857 -0.14967227 0.08163242 0.07567252 -0.13340993 0.27816716 -0.112714626 -0.019518994 0.10495949 0.07563431 -0.16453943
技术 0.023805246 0.17682633 0.18965626 0.06929365 -0.0339681 0.006774216 0.08015179 0.10706208 0.13218153 0.2671834 0.16802725 0.1492343 -0.15745004 0.27479357 0.04062289 0.061676864 -0.19946292 0.05101974 -0.30980897 0.26042902 -0.032095827 0.10284699 -0.13121071 -0.21521413 0.0324381 0.02304653 -0.14437205 0.15907013 -0.029286537 -0.09705462 0.09805989 0.1256961 -0.007179711 -0.056662254 -0.05961696 0.13157652 -0.16533957 0.0726825 -0.10770261 -0.007912286 0.08996047 -0.11156195 -0.093268804 0.18606982 0.010014139 -0.05901783 0.20555463 0.12570085 -0.22690539 -0.0863072
成员 -0.11518005 -0.00043189153 0.045832165 -0.102552086 -0.033773415 -0.0051160306 -0.02516473 0.06573145 0.012704978 -0.17541704 -0.04433066 -0.20413063 0.07597673 -0.12407099 -0.04305309 -0.10231136 -0.15624061 0.021861272 -0.027803518 0.28609407 -0.116419435 0.11381538 0.30291873 0.07893118 -0.29558268 -0.007920995 -0.08749697 0.023616321 -0.15669043 -0.009462383 -0.040490195 -0.43025804 -0.1587246 0.13049042 0.0816176 -0.024077147 0.23018861 0.1382909 -0.0052000657 0.030721001 -0.05148593 -0.17023017 -0.0438879 -0.12519516 0.0039706416 -0.17880988 -0.113671504 0.09270131 -0.1466613 0.012977328
经济 0.106002115 -0.17091583 0.20741189 0.03782917 0.15054266 0.15267631 -0.20190722 0.020326208 0.30605656 0.13918968 -0.030984648 0.0105353 0.18239819 0.06616151 -0.034098256 0.17518091 0.034435578 0.10767961 -0.041102193 0.046359032 0.084019184 -0.03724685 -0.02610375 0.1193182 0.19660217 -0.038028523 -0.053774115 -0.05888889 -0.13449074 -0.046378996 0.045609422 -0.019038409 -0.13848117 0.24971826 -0.0070703924 0.076091744 -0.22859104 0.08083985 0.22307569 -0.06187792 0.034097284 -0.0111618135 0.1180488 0.12622783 0.074919924 0.028757162 0.13612199 0.110134974 -0.036593553 -0.40002632
社会 0.032395612 -0.04691429 0.06677964 0.012325123 0.21399327 0.20521942 -0.022812111 0.13826306 0.3197023 0.04456303 0.10816436 -0.204691 0.336761 0.12223643 0.05299785 0.03276466 -0.2162605 0.11766128 0.021373779 -0.019129269 0.029147044 -0.14662404 0.19691333 0.019853987 0.1065001 -0.10881008 0.08430774 -0.0430236 -0.056612324 -0.055638038 -0.018873917 -0.2457239 -0.17807174 0.14414637 -0.13007179 -0.06524112 -0.20483123 0.030181654 0.18913335 0.045230586 0.037968412 0.0128300935 0.1297344 -0.02347768 0.1777162 -0.10831687 0.113240466 -0.057977498 0.06323815 -0.24453728
委员会 0.075508565 0.14696586 -0.20878042 0.09123924 0.018581938 0.07431651 -0.281019 0.1881722 0.12280633 0.09822847 -0.12690657 -0.15429538 -0.20982072 0.038514916 -0.085583486 -0.06750867 0.02322048 0.07001639 -0.083502226 0.19100073 -0.010568701 0.046723798 0.23979357 -0.12632051 -0.1371629 0.033052728 -0.045678858 -0.13419695 -0.10014577 -0.013441041 -0.1484883 -0.20692416 -0.19258642 0.34120512 0.17098394 0.1505014 -0.045014825 0.15580101 0.0815126 -0.08121458 0.041422486 -0.13968195 -0.07486594 0.20636961 -0.07924327 0.0717459 -0.07574355 0.030139908 -0.09703408 -0.16285467
电视 -0.07419798 0.0014392287 -0.17354457 -0.13740556 -0.1486492 0.022049047 0.061864678 0.1312361 0.06848015 0.024051454 0.03159501 0.039880276 -0.11928187 0.25670496 0.04059346 -0.09333627 -0.2179953 0.013601398 -0.15885268 -0.17052613 -0.31265974 0.2045289 0.24386762 0.012795437 -0.18900621 0.07307587 0.07063926 0.19127326 -0.059026286 0.16837037 -0.059148517 0.025249388 0.21067925 -0.02784321 -0.05568664 0.00017995015 -0.041605532 0.038626358 0.002312258 0.05786938 0.16398393 0.09142792 0.17199296 0.33781654 0.17777596 -0.06514544 0.12586594 0.04478756 0.005811278 0.1730716
小组 -0.17863627 0.2285474 -0.109819435 0.0050530564 0.077905014 0.08338393 -0.09334041 0.19442132 0.09382859 0.12893769 0.13190585 -0.022582076 -0.19320756 0.026313841 -0.04416357 -0.027886659 0.010350846 0.01716953 0.093286455 0.1783418 -0.07304333 0.2917492 0.17892876 -0.098600484 -0.2919069 -0.0706743 -0.035721846 -0.102587305 -0.19389108 -0.08940813 0.06865053 -0.191313 -0.13403238 0.076587945 -0.015065119 -0.02563706 0.09590982 -0.039415002 0.009347968 0.029901892 0.027693134 -0.19525686 -0.33623385 0.21556506 0.007491842 0.055938907 -0.03219577 0.023265585 0.17207068 -0.2278354
部分 0.24998856 0.13697448 0.0929537 -0.28543535 0.16133662 -0.047345415 -0.1077504 0.007245317 -0.15063435 -0.1135073 0.1155867 -0.22623211 -0.023655385 -0.106801055 -0.22143157 -0.26344773 0.14653234 0.171659 -0.17329526 -0.23989682 0.061522942 0.07674767 -0.23577237 0.07469965 0.013556524 0.04156868 -0.066856824 -0.034953065 0.1419087 -0.07093249 -0.16968982 -0.12920046 0.05588839 -0.006503446 -0.1510001 0.13520612 -0.13044049 0.092481375 -0.13465863 -0.11284337 0.10825623 -0.012761444 -0.14277983 0.10950473 -0.07446942 0.046397176 0.16337302 -0.13502918 -0.19431387 0.040013332
铁路 0.20076457 0.08076347 0.033937316 -0.0328546 -0.055677466 -0.11456955 -0.26339072 0.035022333 -0.13595599 -0.21202743 -0.21562438 0.17132746 0.004838653 0.1156377 0.19278213 -0.049286075 0.082115754 0.1928576 -0.1564086 0.05138239 0.06869064 -0.10614671 -0.14022389 0.083278015 0.07777978 -0.099943 0.12415079 -0.083639674 -0.14928871 -0.20614225 0.02004575 0.15549421 -0.00034733117 -0.04102358 -0.09738396 0.23206413 -0.11675236 0.04693359 0.16727345 -0.17370424 0.03760057 -0.052767254 0.06658684 0.20646241 -0.09892893 -0.037720986 0.06958808 0.23346388 -0.004445724 -0.07923551
机场 -0.090076916 -0.051732495 -0.031594373 -0.14522116 -0.1498089 -0.20544723 -0.12942313 -0.03403969 -0.17194343 0.04558734 -0.12628816 0.24268478 0.059528857 0.116604514 0.122843765 -0.001184918 0.08053152 0.15886931 -0.04221034 -0.17486842 -0.11551261 -0.012902008 -0.16735893 -0.010216292 -0.04169053 -0.035247646 0.006016992 -0.020418929 0.02766113 -0.13446385 0.14116299 -0.06967156 -0.10936722 -0.006751459 0.12223009 0.0656511 -0.17531157 -0.09825652 0.122217596 -0.050382778 -0.06860735 0.22164197 0.1734943 0.056174807 -0.28911418 0.32718295 -0.092589825 0.33264115 0.18599488 -0.017509554
总统 -0.0012040138 -0.13673086 -0.17071617 -0.022608772 0.052822724 -0.11948659 -0.038973562 0.07394465 -0.03504265 0.09659353 -0.36921775 0.08902187 -0.065189324 0.045541152 -0.29452634 -0.0050863177 -0.03000626 -0.21807131 -0.011013884 -0.07188882 -0.29576293 -0.065806605 0.065361075 -0.07522448 -0.13543668 -0.095762804 0.0216746 0.04383319 -0.025803104 -0.06963289 -0.11207341 -0.12189302 -0.22165653 0.2725943 0.15270093 0.13467485 -0.0003640689 -0.11635135 0.23054534 0.06177204 -0.16925259 -0.12233529 -0.05217422 0.030942447 0.21442755 0.057424575 -0.11016708 -0.14530715 0.030806389 -0.14997621
女性 -0.1134727 -0.049348928 0.033485726 -0.1788912 0.0026694052 0.039846294 -0.13938238 -0.03866726 0.15512246 -0.2446502 0.06755034 0.025324583 0.3737269 -0.14505018 0.18909048 -0.1936897 -0.21377863 -0.26668316 -0.1574139 -0.044105988 0.12807584 0.1501849 0.15015341 -0.13816456 0.050653007 0.019115798 -0.15124312 -0.16047953 0.03946543 0.036598384 -0.078267224 0.07616753 -0.14352918 0.10518654 -0.07112479 -0.02580554 0.13303122 -0.22499004 0.04010863 0.04919108 0.023713715 0.0154983755 0.057040274 -0.08292397 0.041010473 -0.2218947 0.11009743 -0.15921944 0.048842773 0.022328548
政治 0.09164226 -0.21794042 0.19119845 -0.048396096 0.31008935 0.17802668 -0.14267454 0.2322365 0.17615077 0.06940153 -0.111647874 -0.09859815 0.14161018 0.083574 -0.13671339 0.109918386 -0.15086967 -0.10786209 0.010730024 0.022189977 -0.1200658 -0.102171205 0.033180043 0.049397394 -0.046314903 -0.101955414 0.0503877 -0.07196515 -0.059166573 -0.1460487 -0.17477603 -0.12781893 -0.23176809 0.21755855 -0.044738553 -0.0194503 -0.16581637 0.16922426 0.050003935 0.088939026 0.045263037 -0.028267879 0.21122923 -0.06251204 0.23153175 -0.08705763 -0.06750341 -0.11334041 0.037164822 -0.29018316
事件 -0.1892768 0.11379214 -0.19052216 -0.08114822 0.1844204 0.014605135 0.024494939 0.21968046 -0.07963692 0.023852494 -0.081800826 0.094069734 -0.015372321 -0.042568617 -0.16145065 0.14250404 -0.0011450574 0.0042473525 0.23893884 -0.045001 -0.251877 -0.12148985 0.1294002 -0.09475922 -0.08779776 -0.40565428 0.055706754 -0.027930804 0.080062196 -0.15684484 0.030535992 0.09146095 -0.14253172 0.23418902 0.13092698 -0.3262543 -0.075537056 -0.014375161 0.10290358 0.15241538 -0.10076281 0.02630032 0.011183968 -0.025985742 0.17706496 0.063669145 0.20551682 0.12008953 0.17853321 -0.1127827
方式 0.17515793 0.16376753 0.13114259 -0.13250917 -0.21832697 -0.029451702 0.16016291 0.1865314 0.16378498 -0.056502357 0.14585896 0.013411097 0.054576423 -0.0066161305 -0.15862283 0.1610229 -0.15785944 0.09218769 -0.03492976 -0.09068738 0.11057477 0.07660808 0.013462797 -0.12871915 0.10746896 -0.2409606 0.035610408 0.1465559 0.081651874 -0.16584642 -0.23656917 0.016777404 -0.016593888 -0.09145217 0.026160222 0.20412663 -0.22040926 -0.15895104 -0.13901576 0.099047065 0.04248097 -0.24172744 -0.1279384 -0.011597566 0.100414746 -0.13603783 0.061345942 -0.1126909 0.021822073 -0.00824869
地方 0.16349855 -0.089141995 0.026384715 -0.12218543 0.0447726 0.05082725 -0.09918419 0.24733216 -0.09009316 -0.07220355 -0.062291443 -0.118585765 -0.06646478 -0.08229208 -0.12956125 0.11331335 0.059700973 0.10499064 -0.02437516 0.010635408 0.13792361 -0.43291923 0.07065235 0.21360454 0.12868553 -0.12930246 0.040407468 -0.058052856 0.0010756925 0.18865675 -0.20887965 -0.036152445 0.111290604 0.20134902 -0.083594576 0.036210906 -0.028883528 0.049718723 0.022711106 0.023377473 -0.12444607 -0.04432356 0.15242249 0.03452478 -0.2555903 0.09981792 -0.086788505 -0.10048644 0.07295149 -0.07730261
球队 -0.20136118 0.04099968 0.028918486 0.10297403 -0.01991491 -0.058939427 0.13801776 0.07260127 0.06359713 0.17607482 -0.108266726 -0.11763595 -0.10752061 0.017431766 0.11967683 0.023503188 0.030829024 -0.08353198 0.16398561 0.28081524 0.015826538 0.32074326 -0.010724839 0.43795425 -0.10811201 -0.22794622 0.01871591 -0.02508856 -0.08194942 -0.08218725 0.069736525 -0.03324113 0.012853149 -0.12496891 0.09627156 0.101463296 -0.04175505 -0.08816272 0.19456342 -0.036666296 0.061232734 0.07290778 0.089026965 0.17584573 0.06864339 0.0718668 -0.1608799 -0.07667721 -0.16498773 0.107083425
语言 -0.27429682 -0.0144349 0.25399938 0.009672057 -0.030337896 0.1767143 0.1378889 -0.00499437 -0.07965974 0.08565168 0.17827109 -0.11881533 0.023208348 0.0503864 0.02211032 -0.16294318 0.14896767 0.03668455 -0.13779262 -0.056049228 0.2811435 -0.06141379 0.032781005 -0.07206882 0.0031930879 0.013895884 -0.093158044 0.0481821 0.29088536 -0.0801219 -0.15778905 -0.2040687 -0.005900748 0.038078748 -0.06475142 0.0010890067 -0.28430417 0.08219401 -0.13563064 -0.13693963 0.10935675 -0.18746233 0.14437202 0.059727192 0.057377346 -0.11994095 0.030227706 -0.08548552 0.10866813 -0.20706373
组织 -0.07474372 -0.0519168 0.02995745 0.0143172145 -0.063638024 0.037161812 -0.26068518 0.05822704 0.028955221 0.032258116 -0.113671966 -0.115793 0.18903095 0.1331783 -0.11853008 -0.030647207 -0.19654529 0.07788081 0.036744848 0.3166693 -0.07739253 -0.08963707 0.1490989 -0.056740314 -0.019877777 -0.16485208 -0.024620563 0.048508618 -0.049779937 -0.07167239 -0.15673631 -0.4140389 -0.12679869 0.1903888 0.16179353 -0.0128727555 -0.0980885 0.29275936 0.09382872 0.029682707 0.031961616 0.019956805 -0.114424795 -0.15448467 -0.25962442 -0.0370022 0.13157938 0.06292399 0.038050137 -0.22129196
学生 -0.24430709 0.16778722 0.051925287 0.0045695603 0.063964576 -0.015803374 0.18827818 0.09491894 0.074274525 0.0072518587 0.006898609 -0.072765306 0.17919904 -0.1461837 0.045020364 -0.017104872 -0.018812563 -0.32777184 0.08576638 0.19782147 0.067972966 -0.0045083985 0.082417026 -0.22068648 -0.013024427 -0.020605922 0.29402924 0.060504228 -0.14888388 0.11151545 0.15073967 -0.2918604 -0.0024473816 0.11856239 -0.05197291 -0.061829433 -0.0917657 -0.05621054 -0.034268487 0.097332045 0.028550446 -0.123643525 0.19279383 -0.15644185 -0.08129218 0.14248906 -0.0675899 0.0754987 -0.08742061 -0.2492083
航空 -0.22466856 -0.005589217 0.09958783 -0.116472624 -0.12761652 -0.23961376 -0.046436638 0.03649178 -0.20199321 0.018451095 -0.25279725 0.18318285 0.09962689 0.13727263 0.10046621 -0.030742843 -0.0947168 0.18739143 -0.22449481 0.024895862 -0.10764379 0.24321187 -0.06821038 -0.020441025 0.10217293 0.102188334 -0.10529739 -0.039078534 -0.023440503 -0.19586718 0.12867948 -0.10071917 -0.08989147 0.19474843 0.15568647 0.115979075 -0.2302415 0.015773779 0.18281911 -0.008272324 0.023256399 0.0035402477 0.12784548 0.13311905 -0.11086266 0.23017403 0.058849752 0.24585235 -0.11716848 0.20772086
中央 0.07631924 0.08563717 -0.084927745 -0.12639858 0.089882396 0.036839634 -0.22530362 0.18206817 -0.058352552 -0.125424 -0.071081296 -0.18623203 0.02853652 0.02711957 -0.2258747 0.043656245 0.018155321 -0.024056733 0.01664801 -0.016361993 -0.027220923 0.04736337 -0.022742853 -0.080623075 -0.37801754 0.07979224 -0.051631793 -0.1585646 -0.29672915 0.045496885 -0.16384616 0.029934794 0.058068827 0.1302917 0.061526276 0.2266147 -0.012996351 0.2456016 -0.104022786 -0.05501033 -0.15332597 -0.037384048 -0.065599054 0.36350462 0.036159772 0.2174252 -0.08935124 0.09450177 -0.10610806 -0.017797504
联盟 -0.010722935 -0.12339182 0.07962068 0.18909532 -0.021233715 -0.028566387 -0.03832584 0.0084143635 0.0442622 -0.034618177 -0.13849124 -0.003972143 -0.0361756 0.13542578 -0.10065982 0.030550472 -0.056407377 0.0039366856 0.12071189 0.3140967 -0.109722346 0.07361707 0.15215367 0.265451 -0.24146368 -0.07296826 0.010797463 -0.05773551 -0.12848462 -0.13597427 -0.054903734 -0.28896338 0.0099194795 0.17821643 0.22312671 0.002719298 -0.33458853 -0.015564922 0.110805154 -0.0963161 0.022369951 0.005322188 0.03726301 -0.064484745 -0.14959627 -0.025471494 -0.07627926 -0.025564998 -0.20865914 0.09070575
时代 -0.033698447 0.020587582 0.16889021 -0.011989363 0.12931907 0.25960988 0.12862758 -0.11211254 0.16716655 -0.11852929 0.046996623 0.05309346 0.11049632 0.18672533 -0.0028195754 0.030247774 -0.018607575 -0.017816305 0.19695157 0.003963098 -0.014567371 -0.052416343 0.07357484 0.17313612 0.059724245 0.16013683 0.15139255 -0.18201044 0.104597926 -0.08653538 -0.12591535 0.3855167 0.03035406 0.11098431 -0.32985896 -0.15417066 0.11664649 0.1739173 -0.03562815 -0.019362113 -0.04019825 -0.021773193 0.2592458 -0.06746596 0.09053246 -0.10315581 0.057945244 -0.099500805 -0.07650869 -0.13610515
情况 0.040534984 0.28528666 -0.0069935992 -0.16791338 -0.11173892 -0.06895521 0.09255393 0.39333674 0.15185553 0.049613625 -0.06890435 0.038701013 0.0047674123 -0.18958992 -0.003445292 0.18539923 0.09366627 0.05424864 -0.0044202097 0.02697054 -0.039326295 -0.15843122 -0.009040948 0.076135665 -0.0013500219 -0.25746638 -0.13351722 0.05025152 0.15476304 -0.036498554 -0.05054035 0.068462186 -0.07400118 0.010177292 0.22317635 0.12028571 -0.21840574 -0.30014065 0.02853755 0.06695122 -0.04145683 0.00216287 -0.13415562 0.02596197 0.15494835 -0.060395014 0.11179936 -0.09598455 0.120977394 -0.18763
海军 -0.09523526 0.103836656 0.052346736 -0.12365216 0.03504291 -0.22303863 0.0010897964 -0.07061942 0.18372583 0.063255005 -0.18816943 0.08846654 -0.064258665 0.18825507 -0.037684686 -0.13285658 0.19450834 0.07098496 -0.18099126 0.07203427 -0.087529615 -0.05645173 -0.28430223 -0.0974977 -0.07557641 -0.03404318 -0.035309874 0.013573535 -0.21254241 -0.04960649 0.1553326 0.0051748827 -0.21235353 0.17901991 0.14994621 -0.13741805 0.14217554 0.100576006 0.1832973 -0.069374315 0.15681921 -0.2095421 0.015170034 -0.15017855 0.09641011 0.22985423 -0.0267753 -0.014284618 -0.12057991 0.119853914
全国 -0.010100499 -0.119518355 -0.029933203 0.12885658 -0.03814075 -0.090287864 -0.14989007 -0.12321164 0.15615273 -0.055783067 -0.14336109 -0.20554405 -0.023120847 0.08228521 0.11485813 0.03114948 -0.1350143 -0.19536698 0.027638702 0.05835018 -0.12780163 -0.13804452 0.17930534 0.07892281 -0.13634983 0.097365744 0.14684501 -0.09856571 -0.14738837 0.22799186 -0.15388016 0.05887048 0.03948815 0.17349057 0.11650438 0.021174125 -0.013228942 -0.054606587 0.04275804 -0.09056389 0.1261201 -0.08835427 -0.10654589 0.29179263 -0.17263682 0.07134286 -0.06789462 0.085805595 -0.15356906 -0.2791285
方面 0.09308344 0.064086005 0.13510855 -0.02681921 -0.09873605 0.07448077 -0.05304487 0.21527891 0.3188292 0.32297438 0.13342866 0.02463843 -0.026454162 -0.013164824 0.0079236105 -0.036555633 -0.099130444 -0.029327396 -0.21733348 0.18455799 -0.08108844 -0.050848998 -0.12763892 -0.1920808 0.15484655 -0.017697183 0.10857257 -0.04287302 0.06311534 -0.19146185 -0.007022962 0.03938255 -0.11312477 0.15373889 -0.051909503 0.11472458 -0.2521101 0.0036231475 -0.021443602 -0.14254093 0.17038497 -0.0033252416 0.004142083 -0.07004307 0.3342715 -0.054270454 0.025338583 0.025236141 0.017449796 -0.21145457
系列 -0.12663516 -0.07871646 0.091016605 0.00081677735 0.05323043 -0.10420091 -0.009474326 -0.07376393 0.013214091 -0.05020539 -0.05507882 -0.054777987 -0.16749269 0.12539972 -0.053726003 -0.2524979 -0.379583 0.17836963 0.07423407 -0.055922594 -0.15148856 0.19668761 -0.06085893 -0.09340921 0.008894436 0.29533347 0.098987214 0.21245804 -0.021012004 -0.087546445 0.005591329 0.18925834 0.28569478 -0.12559561 -0.02424777 0.044740275 -0.019609 -0.003652759 0.05499167 0.040465984 0.122890696 0.037259027 0.03480745 -0.008984088 0.059854463 -0.16459017 0.124914244 0.11665547 0.29235643 0.12811373
能力 -0.09559922 -0.045103453 0.24844617 -0.039734997 -0.058096886 -0.06668234 0.18397711 0.07548766 0.23567697 0.16554083 0.03607642 -0.009223338 0.10372206 -0.10976529 0.13263705 -0.008437008 -0.11404157 0.029459724 -0.06947983 0.30940682 0.06261386 -0.21780196 -0.1786786 -0.12757145 0.013098784 -0.12200785 -0.00088347495 0.23540138 -0.039720334 -0.14729011 0.26127654 -0.028582595 -0.016180262 0.038921434 0.040138923 0.11657848 -0.086756244 -0.2120545 -0.14751786 -0.008724354 -0.13653126 0.1256234 -0.07768161 -0.18731207 0.0038790517 -0.1088635 0.19280311 -0.16738851 0.039235853 0.034247257
角色 -0.026283221 -0.1770123 0.16846108 -0.16372319 0.1309219 0.02795969 -0.042253535 0.1737039 0.22720206 0.035291523 0.0058940575 0.01635472 -0.17462417 -0.030836545 0.013994962 -0.22975835 -0.22834696 0.054237377 -0.002721887 -0.11228238 0.02355446 0.13058168 0.08017295 -0.09668195 -0.1861313 -0.023169372 0.106019095 0.24738237 -0.05732865 0.030237056 0.046771348 0.07395135 -0.054128435 -0.14010191 -0.11126088 -0.07787617 0.05801637 -0.18103245 0.0455779 0.26943988 0.0013781264 0.08049894 0.24082875 -0.1958163 0.17565496 -0.26805773 0.1284535 -0.049003784 0.2160566 0.10361065
大陆 -0.25556457 -0.14406675 0.19834521 -0.020280272 -0.103719294 0.28375486 -0.17445262 -0.040863387 0.009581964 -0.19317679 0.043651976 -0.011129986 -0.10738638 0.1489738 -0.08456073 0.12802395 0.099089384 0.033947527 -0.108786255 -0.33611146 -0.342022 -0.056434557 0.059274673 0.098782286 0.052256808 -0.081211075 0.20375681 -0.012930106 0.15899748 0.040480778 0.04236915 0.10527055 -0.10560935 0.15268627 0.06371927 -0.03378377 -0.26661527 0.18493657 0.11927018 -0.072345406 0.1230724 -0.014724201 -0.08141172 0.1808975 -0.11643791 0.04121214 0.081794165 0.06610544 0.12696964 0.048883814
县 0.10757584 -0.345257 0.008350197 0.035001457 0.034104675 0.009556677 -0.2828735 -0.08022358 -0.14850439 -0.07466142 -0.094537914 0.04209557 -0.13126819 0.081402026 0.028013103 0.059650525 0.1817622 -0.06816879 -0.04464103 -0.058428176 0.096996024 -0.13619538 0.038253166 0.11826471 0.008517727 0.02592834 -0.037212834 -0.13119909 0.09119892 0.10249512 -0.09739785 0.18140455 0.065516025 0.027224518 -0.10963874 -0.16631585 0.07713438 -0.24323305 -0.0010969713 -0.25336725 0.0066315904 -0.071566485 -0.052127987 0.098661065 -0.12445459 0.31512845 -0.0116677955 -0.13995728 0.030018114 -0.20702517
节目 -0.08782631 0.036183327 -0.06901771 -0.22240481 -0.19334655 -0.006729845 0.24390534 0.11083467 0.031065546 0.1934765 0.015481517 -0.05507788 -0.07770285 0.101317525 -0.0203228 -0.027085157 -0.09446985 -0.058436032 -0.08016673 -0.24521892 -0.27931905 0.2201673 0.25029254 -0.022187114 -0.18421273 0.0013931021 0.11968275 0.015475571 -0.12994152 0.24021977 -0.19394805 -0.08010578 0.1666103 0.004902471 0.094728604 -0.0007642284 -0.081230015 -0.037408665 -0.06854772 0.072303414 0.118556865 0.020722762 0.16321975 0.16490903 0.24321617 -0.2065885 0.0726769 0.023921466 0.025443729 0.040696017
专辑 -0.030951552 0.019926488 0.046484623 0.05158239 -0.25960523 -0.037235923 0.10016816 -0.07874884 -0.17804298 -0.032061715 0.13831756 -0.27587736 -0.06810984 -0.10110233 -0.071739934 0.011056922 -0.055180416 0.038800266 0.14201692 -0.2405368 -0.14455898 0.044132635 0.027369276 0.065693244 0.15994051 0.046679527 0.0020540655 -0.0125511885 -0.088388935 0.07375734 0.13686673 -0.10263522 0.100639954 -0.046124104 0.10962968 0.11573091 0.17413469 -0.001598008 -0.07830118 0.024684893 0.21307743 0.104742885 0.1197247 -0.17811075 0.41358376 -0.24617222 -0.015148226 0.016493812 -0.2122461 0.027909774
故事 -0.0877344 -0.021949917 0.0033823457 -0.20600173 0.33656198 -0.04347593 -0.051334478 -0.070453234 -0.02218566 0.034838032 0.105966434 -0.0496933 -0.13031167 -0.024426047 0.09121193 -0.17411605 -0.1213685 0.020560358 0.24167642 -0.22634535 0.052438524 -0.04369158 -0.029173018 -0.080049545 0.021976054 -0.03725177 0.26136392 0.1959228 -0.06643283 -0.05424749 -0.1317044 0.06553349 -0.030930173 -0.0107693225 -0.088061124 -0.26523525 -0.056866676 -0.033119414 -0.05427527 0.119374625 -0.023973748 0.04312204 0.22205506 -0.22142929 0.11484888 -0.22839248 0.2151295 -0.0677516 0.16429162 0.14811479
版本 -0.19782256 0.26620364 0.07557547 -0.020141922 -0.011258736 -0.08189385 -0.03208954 -0.1102288 -0.039724633 -0.08147639 0.06543079 -0.1961047 -0.41077667 0.06010232 -0.23069526 -0.082206726 -0.10276227 0.14253154 -0.028096914 -0.27494878 -0.10260827 0.15679145 -0.0847347 -0.075546145 0.06567392 0.17924029 0.007486485 0.28256422 0.18847394 -0.059892476 0.03145834 -0.09582181 0.25022846 -0.07548496 0.0463043 -0.003679797 -0.115174256 -0.053629875 -0.029944468 -0.0751436 0.13614374 -0.16405001 0.013138339 0.040877566 0.14015272 -0.18174763 -0.0638466 -0.074218936 0.063479915 0.10841759
列车 0.07203522 0.17543341 0.029739171 -0.030681707 -0.041015998 -0.24484766 0.12119777 0.056870144 -0.14949454 -0.23856893 -0.024777304 0.06632207 0.15997604 -0.10990541 0.21657366 0.037462696 0.14563999 0.077594094 -0.2458187 -0.14929754 -0.03399098 -0.071362615 -0.20667583 -0.118832745 0.011341542 -0.15060967 0.16576652 -0.022306869 -0.05966828 -0.25882936 0.0077807233 0.18006715 0.2656386 -0.13621466 0.104561314 0.26293924 0.019525185 -0.096361935 0.018238876 -0.077743925 0.048114005 -0.07600891 0.08528504 0.1772779 -0.02859797 -0.12655523 -0.12436751 0.16292866 0.13944444 0.044507083
代表 0.14366707 -0.23332717 0.073898524 0.037431337 0.07405566 0.14705251 0.009975072 0.04046663 0.09026005 -0.30436784 -0.12525776 0.041993245 -0.065049246 0.04079054 -0.03961283 -0.14001289 -0.10620946 -0.09468034 0.052107327 0.22105771 0.027736802 0.134108 0.090333 -0.0359094 -0.1745598 -0.23086372 0.13593923 -0.040827647 0.09654779 -0.009878494 -0.16291645 -0.003959775 -0.067177705 0.069782086 0.20395094 0.078379855 0.09612507 0.22162302 0.0871477 0.08627063 0.13525724 -0.050229482 -0.0716926 0.060265034 0.0732307 -0.083088346 -0.39971462 -0.22074658 -0.12437628 -0.13757451
球 0.09308788 0.05105315 0.02063217 0.21360806 -0.26789063 0.006358709 0.19176288 0.08904205 0.038231876 0.12109726 0.029014071 -0.055054903 -0.024600714 -0.09806687 0.08695854 0.11788769 0.05691658 -0.2069866 0.20577233 0.14900666 -0.04279184 0.2379229 -0.19662867 0.2678884 -0.2674557 -0.18517563 0.05683604 0.0059202723 0.11610777 -0.109047055 0.014733935 0.11902346 0.11801413 -0.21830669 0.15571707 0.1840008 0.028318992 -0.09917592 -0.10765216 0.15168878 -0.07525251 0.15349661 -0.07502119 0.09506334 0.06692671 0.12401661 0.004859522 -0.08257809 -0.01690235 0.1843513
结构 0.27332795 0.1495319 0.11031195 -0.17897993 0.20656298 -0.044877253 -0.052152935 0.040056307 -0.043597557 0.030414708 0.26757753 -0.078389786 0.25467896 0.052113533 -0.06520602 -0.1765075 -0.22051838 0.22122088 -0.24379903 -0.04206224 0.299209 0.21809979 -0.13635816 -0.0040082484 -0.0740824 -0.08452728 -0.20268768 -0.036122687 0.14875978 -0.078880996 0.07667468 -0.018410511 0.10298682 -0.078255 -0.003851423 0.044277392 -0.05573593 0.09047324 -0.11994445 -0.049047723 -0.08014489 0.04330016 -0.23311996 -0.08451334 0.0035050176 0.12023748 0.12892795 0.08654903 0.0043650568 -0.24984485
人类 -0.05990626 -0.07261841 0.09900169 0.02327219 0.09820804 0.18166031 0.2313223 -0.037702505 0.12057638 0.05945422 0.20479849 0.03127382 0.21933387 0.0406992 0.071895346 -0.043615155 -0.0072448403 0.15930627 0.040433146 0.08765609 0.1073415 -0.16705295 0.10858581 0.075296685 0.14755116 -0.028499871 0.06819338 0.093962856 0.047095 -0.19981985 -0.016983414 0.06409457 -0.23922434 0.18970618 -0.12662777 -0.025180593 -0.06402729 -0.025947532 -0.11962597 0.015343368 -0.08973904 0.1329307 -0.09692229 -0.037797652 -0.15091872 -0.14350362 0.41078377 -0.29531115 0.1881274 -0.047023036
父亲 -0.08549925 -0.016999811 -0.060792584 -0.008009436 0.18476649 0.15626398 0.0016258005 0.10484217 -0.027164297 0.065996155 -0.12590174 0.20723528 0.10575201 -0.07698635 0.25747785 -0.035578303 0.082496986 -0.09765848 0.12343989 0.1707579 -0.0871058 -0.2305534 0.06400799 0.08325794 0.039499708 0.12584464 -0.006921299 0.2487689 -0.04351772 0.18446903 0.023243751 -0.055063277 -0.21200934 -0.093908936 -0.1246017 -0.124886855 0.12648949 0.049537793 -0.038443267 -0.16499221 -0.25101542 -0.088487186 0.17839319 -0.19196518 0.19343585 -0.114944294 -0.03720214 0.057314895 -0.20465742 0.18332505
男性 -0.079455405 -0.21116446 0.053879917 -0.10321096 -0.070659496 -0.010568511 -0.15033187 -0.0039141625 0.01246218 -0.17589274 0.15577102 0.01141234 0.32009506 -0.12174505 0.199803 -0.089920975 -0.18571784 -0.24254523 -0.019240707 0.040922415 0.0984403 0.10343082 0.1439642 -0.19029535 0.05612185 0.18637991 -0.18830745 -0.0561179 0.08166378 -0.023483302 -0.13092752 -0.059261814 -0.07625301 0.14009905 0.029247612 0.0031316355 0.09283611 -0.3173396 0.01722052 0.0012225583 -0.10806352 0.06540607 0.13786076 -0.0673123 -0.005917847 0.02655753 0.11544135 -0.2578612 0.23756516 0.06976695
方法 0.044240553 0.2636009 0.06870705 0.077115655 0.034854803 0.027436636 0.20846258 0.21667576 0.13487686 0.1575153 0.10204336 0.14574383 -0.033702537 -0.01654812 -0.08818331 0.13353609 -0.057310537 0.023615278 -0.11334788 0.009423308 0.31793797 0.09806262 0.009164145 -0.08536886 0.22818823 -0.07699002 -0.045840684 0.09387261 0.096079 0.031375706 -0.111025885 0.02963977 -0.10200768 -0.18667969 0.0642508 0.13938309 -0.16855782 -0.102264084 -0.2280404 0.06967186 0.046609934 -0.15449625 -0.23796405 -0.1335487 0.0092595145 -0.07052352 0.15407398 -0.15833251 -0.013835914 -0.27040786
人民 0.037097685 -0.15719868 -0.1974498 -0.07791874 0.14726524 -0.0037075598 -0.085741706 0.018649764 0.24749371 -0.22255895 -0.15066901 -0.31552133 -0.07317944 0.2660814 -0.1106773 -4.3079257e-05 -0.004997002 -0.06875654 0.08762304 -0.04856817 -0.18009067 -0.31390122 0.061403207 -0.030135773 -0.014856055 -0.054203138 -0.044778973 -0.028565142 -0.10095815 0.05402476 -0.05740273 -0.056032985 -0.23425643 0.2305742 0.110460795 0.116388574 -0.23200813 0.13629375 0.085560955 0.042679146 -0.03002954 -0.15939431 -0.15571272 0.049504846 0.11296476 -0.014273651 -0.06383081 -0.096880496 -0.1629282 -0.0933054
国 -0.0016909838 -0.20433448 0.07730186 -0.048807357 -0.07813196 0.08389486 -0.11679979 -0.15073836 0.16988721 -0.16297856 -0.26700202 0.11521831 -0.09496823 0.120896146 -0.0710693 0.052032724 0.39080033 -0.08545744 -0.017021358 0.15932271 -0.13533653 -0.0875184 -0.12047683 0.114198595 0.056134656 -0.080569334 0.21790801 -0.061775696 0.24128972 -0.25301167 -0.0930207 0.054130673 -0.052748427 0.29867193 -0.06320986 -0.04204557 -0.11162315 0.12870657 -0.0688042 -0.12582712 -0.117195636 0.06521388 -0.06745291 -0.102476396 0.023792863 0.0024894178 -0.06988352 0.13698907 -0.057946343 -0.20044453
传统 0.15193169 -0.08783766 0.17139357 0.0057615303 -0.019004956 -0.0014794506 0.21335265 -0.01938311 0.14551051 0.028154947 0.29408017 -0.061157156 0.16448241 0.23178104 -0.08621754 -0.074987665 -0.12132786 0.0001712041 -0.0008431189 0.01991329 0.1560901 -0.025406126 0.03621901 0.019263323 0.3337974 0.013225138 0.06865761 -0.00421129 0.06465228 -0.01711937 -0.3113303 -0.043999746 0.014007315 -0.14675462 -0.039578058 -0.03835996 0.031010173 0.10954067 0.008472737 0.011362536 0.06457236 -0.24726194 0.13824716 0.024162248 0.038883362 -0.14134017 -0.3004928 -0.17462459 -0.040388566 -0.060915597
建筑 0.22611159 -0.022761934 -0.05304291 -0.08375735 0.11191168 0.002003543 0.11884466 -0.12606391 -0.03579417 -0.04013347 0.19841471 0.07984164 0.06621779 0.06979911 -0.09161234 -0.2669786 -0.19797899 0.03250312 0.010219365 -0.07324409 0.21180394 -0.05343744 -0.21333101 0.0361809 0.13032489 -0.031521432 -0.031672686 -0.03553852 -0.07887751 -0.034628242 0.05832316 -0.047606274 0.040873185 0.048927505 -0.29115418 -0.002790342 0.15315306 0.2438232 0.058242775 0.08120383 -0.032991022 0.054010153 0.1609602 0.030117612 -0.08887273 0.337977 -0.17868598 0.06965064 -0.22289786 -0.23869187
月 -0.11066225 0.19633494 -0.23582453 -0.13500333 -0.06726716 -0.19800189 0.19234173 0.1681647 -0.004143618 -0.004512176 -0.12105395 0.094361216 -0.25593406 -0.2616616 0.16012958 0.19330454 0.112418965 -0.15898904 0.16697428 -0.072168805 -0.24424002 -0.10925794 0.077721074 0.08898156 0.02013589 0.061688125 0.16465579 0.10069445 0.006133219 -0.006245494 0.16344835 -0.029656112 0.07956588 0.04039174 0.26464683 0.08701794 0.07602234 0.019707184 0.14103429 -0.028143063 -0.075221844 0.076204404 -0.11136444 -0.037303425 0.08647703 -0.014246937 0.06708018 -0.13748898 -0.05307272 0.069636665
演员 -0.035527732 -0.2258302 0.0060819704 -0.032995846 -0.00991481 0.010111172 -0.025399692 0.052614905 0.14007989 -0.03821827 0.079746634 0.04727244 -0.10162591 0.06030631 0.26427358 -0.17120264 -0.1608192 -0.20096266 -0.12955526 -0.31786966 -0.1542601 0.11449374 0.19858514 -0.03759102 -0.20797813 -0.008180566 0.17559074 0.04877543 -0.067689165 0.22409114 0.12511024 -0.10626948 -0.09268518 -0.26960924 0.07278442 0.037978776 0.15042996 0.06550289 0.029455438 0.074007794 -0.059053767 -0.002706021 0.2569031 -0.061599337 0.21564466 -0.09303072 0.10604559 0.122589484 -0.015647095 0.2522758
地 -0.07016603 -0.24461098 0.04490803 -0.11442852 -0.09081266 0.094486386 0.00016979128 -0.0785533 0.020964572 -0.10182079 0.03271797 0.10797906 -0.08969906 0.13340083 0.0058895424 0.12384494 0.25013688 0.05586487 -0.010821549 -0.13678722 -0.13907056 -0.27316585 -0.042462043 0.27428687 0.22611843 -0.044999063 0.26804534 -0.13716961 0.15297979 0.08009 0.020658292 0.0707369 -0.06104682 -0.034085408 -0.10310226 -0.07865464 -0.07173031 0.1178393 -0.0020561293 -0.19826388 -0.11554102 0.023362488 -0.19062912 0.029610015 -0.28141525 0.18610299 -0.08848477 0.121016175 0.14117785 0.06401421
名称 -0.11152573 0.06427242 0.041518927 0.09180829 -0.109248415 0.0076397136 -0.30328846 -0.08424597 -0.21801372 -0.07687454 0.019857777 0.049327485 -0.12020912 0.17902935 -0.21664499 0.022200484 0.087280184 0.33166355 -0.10253405 -0.004064977 0.19140148 0.2652319 0.10291642 0.0687772 0.00095487386 -0.0097114 -0.025019623 -0.015122451 0.10853822 0.02139254 -0.35691583 0.11485001 -0.0107984245 0.035674665 -0.03014158 -0.019104814 0.09924228 0.12999292 -0.023097262 0.084023364 0.125298 -0.03942965 0.079420775 0.068358906 -0.15980019 -0.12108424 -0.21765952 -0.061083164 -0.05723624 0.10063057
动物 0.12957223 0.09586491 0.06267856 0.14990823 -0.1433234 0.2228171 0.22499591 0.009379111 0.03703302 0.056368887 0.14002448 -0.004506834 0.07671741 0.14949688 -0.036264773 -0.043485228 -0.012136329 0.05090359 -0.18030068 -0.047477417 0.20472044 -0.12132014 0.15026551 0.07090522 0.009813914 0.02575647 0.07438977 0.13510454 -0.0027664565 0.030101981 -0.1468154 -0.033466972 -0.11541247 0.14141616 0.09185408 -0.061943788 -0.020817265 0.024891062 0.1483103 -0.0023598298 -0.20483758 0.11127941 -0.15985182 -0.14934713 -0.33763844 -0.13522232 0.26444054 -0.076572075 0.28702146 0.11693004
动画 -0.054354597 -0.09213019 0.006848773 -0.040082403 0.016018108 -0.008582529 0.06842439 0.14229119 0.029783659 -0.061021376 0.025829852 0.020378184 -0.3384111 0.010445744 -0.053671405 -0.2427614 -0.10390502 -0.06133889 -0.1011064 0.047339935 0.038292777 0.17977177 0.06823173 -0.23439297 -0.02894893 0.0731532 0.15549573 0.25034648 0.03945051 0.11289869 -0.0174253 0.08203678 0.30048227 0.022250634 -0.16973265 0.0053023584 0.028562617 -0.017030418 -0.10679882 0.066835724 0.11408605 0.15554056 0.13540834 0.041740444 0.20021415 -0.20645791 0.261262 0.10138433 0.097360194 0.22642282
过程 0.1615354 0.16248025 0.046531074 -0.21450458 0.17273319 -0.06874879 0.14714442 0.28057197 0.004403279 0.24950622 0.1425915 -0.011932887 -0.019916765 -0.0033064038 0.010025069 0.07885521 -0.10998437 0.09867869 -0.010440119 -0.14453697 0.034334503 0.03606104 0.03873983 -0.032140188 0.10985062 -0.21248835 -0.048120465 0.20310622 0.07235812 -0.08445922 -0.06555031 0.031125385 -0.2097175 -0.105234474 0.18776405 0.027559653 -0.12923434 -0.041109428 -0.053330146 0.17281686 0.03730861 -0.11314755 -0.31695795 -0.06269156 0.10816275 -0.13039266 0.32470092 -0.06866476 0.02361893 -0.18527842
人物 0.027223814 -0.24067163 0.1377556 -0.058370918 0.34014714 0.07999174 -0.0025126562 0.05907002 0.011767685 0.016007897 -0.0434276 -0.015713297 -0.16589275 0.069569916 -0.068700895 -0.112497106 -0.37953624 -0.12921265 0.0759642 0.015949737 0.0014849659 0.088441625 0.0013397262 -0.17906338 -0.13122374 -0.11031912 0.15010324 -0.004780723 0.027976103 -0.06984301 -0.14370784 0.17678836 -0.129135 0.020119734 -0.09557599 -0.18020725 0.003922507 0.08994968 0.012216717 0.16028842 -0.07229617 0.12336234 0.26844096 -0.17671978 0.23747857 -0.26683417 -0.08629426 -0.1919057 0.105867945 -0.06711003
军队 -0.06327243 -0.070112005 -0.1076221 -0.20783842 -0.06045378 -0.21549232 -0.16401148 0.11006847 0.16776511 -0.1575835 -0.15730262 -0.039801046 -0.066989295 0.04092791 -0.1539781 -0.07743217 0.23015511 -0.039410576 -0.021021288 0.32294962 -0.27206743 -0.33215702 -0.15820354 0.2525712 -0.023444716 0.050900552 -0.08484694 -0.057179008 -0.044351943 -0.05730486 -0.043091357 0.055682305 -0.26512638 0.122768775 0.00019823015 0.039450955 -0.10769899 0.026816554 0.050824083 0.061975196 -0.045488596 -0.17342658 -0.04777295 -0.15385437 -0.012880504 0.075678125 -0.017164772 -0.0036368743 0.10329449 -0.094449796
版 -0.24682873 0.17744248 0.033599723 0.038219377 0.13001345 0.020953849 -0.048760906 -0.10021883 0.18279794 -0.07964085 -0.013076477 -0.27823192 -0.32910728 -0.011102051 -0.21733887 0.019346675 -0.069031104 0.0042269975 0.072523735 -0.20153141 -0.07494275 0.28609487 -0.11311932 -0.24212909 0.0037096925 0.15652202 0.014593791 0.20779541 0.17554116 -0.048549257 0.061601445 -0.03714163 0.34402508 0.059373464 -0.03859356 -0.011069994 -0.11253724 -0.011150427 -0.06450672 -0.0315268 0.12450466 -0.006741263 -0.031569876 0.12775204 0.029514648 -0.15919548 0.021734908 0.0059900284 0.041823056 0.21929577
职业 -0.14504737 -0.0053287186 0.22638297 0.03180679 -0.048366286 0.01074223 -0.12911345 0.120105416 0.07155183 0.26790795 -0.029210415 0.123642586 0.15295033 0.12735981 0.34657323 0.057640344 -0.28358072 -0.21276501 0.12487877 0.15157598 0.054773696 0.016219348 0.0451117 0.13567662 -0.27391112 -0.0556801 -0.06308325 0.19579583 -0.18107235 0.052313186 -0.025234478 -0.06940395 0.060171053 -0.1433638 -0.053787857 0.06881358 -0.10478362 -0.049556877 0.09459844 -0.0769849 0.06482845 -0.05509808 0.1818299 -0.17611195 -0.12245975 -0.046130538 -0.04471116 -0.05530566 -0.2737118 0.2123325
位置 0.19453499 0.19245169 0.23307481 0.024399135 -0.14118262 -0.037767604 0.24606062 0.1972269 -0.13873702 0.050817057 0.007088186 0.026555719 0.0416937 -0.12899569 -0.07950439 0.14142318 0.14481525 0.12071986 0.026745334 0.007101409 -0.032221716 0.1479592 -0.27730712 0.17157188 -0.2540151 -0.105604514 -0.27976012 -0.15007299 -0.020440463 0.0023807213 -0.06399219 0.17369026 -0.003095597 -0.14740412 0.088682845 0.01740308 0.031572208 -0.061703414 -0.37890399 -0.06720622 -0.09842739 0.15635073 0.1301693 0.08572158 -0.141904 0.16144715 -0.10752562 -0.121860735 -0.062171757 0.045456804
工程 0.13333404 0.26729622 -0.13426282 -0.060616635 -0.017914962 -0.07731596 0.07678418 -0.016167909 -0.055550717 0.18660502 0.12080577 0.16399391 -0.1260142 0.13938633 0.046884604 -0.070877336 -0.030839536 0.14550053 -0.30862477 0.025579266 0.031934008 0.02288654 -0.082359016 -0.13163346 0.07441245 0.009609912 0.12642874 -0.05682203 -0.18751186 -0.106023766 0.3155715 0.01656047 -0.08545353 0.05637047 -0.19955602 0.15911248 -0.071912535 -0.038005825 0.037810817 -0.011155881 -0.016366823 0.013384318 -0.12630814 0.1478232 -0.13978231 0.15835658 0.017728917 0.19647773 -0.27794713 -0.18446624
球员 -0.076174065 0.050850853 0.106493786 0.14037241 -0.2010501 -0.021824889 0.2375952 -0.017104536 0.14327979 0.12907232 -0.06988944 -0.057720385 -0.07836516 0.0056025833 0.17260775 0.119133145 -0.10164972 -0.2374137 0.16579644 0.1931862 0.0389286 0.31562623 -0.01777859 0.21085936 -0.21846783 -0.1623295 0.067792445 -0.15274334 0.056004047 -0.13318938 0.08916466 -0.042631194 -0.07367679 -0.19815691 0.0877807 0.014574692 -0.06775383 -0.11516757 0.17239523 0.030913781 -0.019305034 0.14898798 0.142115 -0.031909876 0.105555326 0.08428465 0.09468639 -0.061772138 -0.23241754 0.13356361
结果 0.07661755 0.1631262 -0.10254071 0.023717001 0.06638364 -0.028912798 0.109951116 0.18301402 0.060875896 0.049144305 0.00020200014 0.0927764 -0.16198722 -0.23549661 -0.0789911 0.18780264 0.03312275 -0.05186846 -0.053384356 0.1188322 -0.08953588 0.07253873 0.05273764 0.09793655 -0.10860726 -0.17899671 -0.07810563 -0.008296996 0.112991795 -0.0631137 -0.061938137 -0.06355843 -0.16203223 0.078383 0.20143847 -0.059620433 -0.09633935 -0.4176699 -0.087667696 0.08747631 -0.005497042 0.04203259 -0.23936069 -0.011999741 0.26510555 -0.010233432 0.1705496 -0.23026505 0.12855026 -0.33036655
国王 -0.03154318 -0.08584626 -0.17574704 -0.21509886 0.15779778 -0.0030750409 0.007386092 -0.0011538118 0.15935567 -0.13736829 -0.14766662 0.045213398 -0.11150734 -0.00078231096 -0.13057558 -0.16913721 0.2147869 -0.14241417 -0.06512691 0.07398479 0.026873738 -0.2413206 -0.071400315 0.32353467 -0.014875203 0.15248749 -0.14445542 -0.014466539 0.0011263415 -0.2031455 -0.16363966 -0.12916124 -0.14563079 -0.017052881 -0.03595881 0.0044485955 -0.07349175 0.07325143 0.12484944 0.14323264 -0.18566701 -0.015512325 0.14079197 -0.14382559 -0.018630728 -0.24838282 -0.26323888 -0.094044924 -0.29122892 0.07071906
部队 -0.12466338 -0.034496337 -0.052994218 -0.22145961 -0.18851937 -0.31244105 -0.043682773 0.18354478 0.08167181 -0.14216733 -0.0846123 -0.11797797 -0.10528393 0.094866425 -0.011549532 -0.09107585 0.17281973 0.0926888 -0.025461763 0.24777618 -0.27855915 -0.21698621 -0.13432504 0.06570123 -0.14104375 -0.07861825 -0.106077805 -0.081268415 -0.19891846 -0.01660214 0.0882439 0.076449394 -0.25460455 0.12548834 0.059383094 0.050488345 -0.024674945 0.005030837 -0.020320147 0.02890005 -0.019578148 -0.053649276 -0.10273653 -0.21481507 -0.10101426 0.22368129 0.04556124 0.10106473 0.23016718 -0.042858846
主席 0.07187679 0.021502852 -0.21617644 0.12481989 0.09960666 0.20147717 -0.1725575 0.08667417 -0.0018733758 0.07826281 -0.25936398 -0.1460801 -0.08202434 -0.044950493 -0.14323346 -0.09175469 -0.15632641 -0.039648995 0.041852772 0.23021908 -0.17081088 0.06879623 0.18768819 -0.015956614 -0.19729021 0.056455 0.11036779 -0.02743917 -0.11512855 0.05457648 -0.06298201 -0.14650458 -0.3472829 0.12269955 0.18046081 0.111915335 0.021279927 0.12085081 0.19039652 -0.051254705 0.045177594 -0.048958153 -0.036119424 0.3031502 0.096225455 0.014869854 -0.16917239 0.1290749 -0.15197359 -0.006012583
人员 -0.21146229 0.15162483 -0.0837678 -0.1711176 -0.11954224 -0.1999079 0.042065132 0.26549894 0.08261397 0.11007756 0.07837646 0.047396854 -0.20082602 -0.112166435 0.06310953 -0.01774662 -0.2006576 -0.012907272 -0.25428915 0.04891514 -0.18235311 -0.1478328 0.060003445 -0.3836375 -0.06812988 -0.23912495 -0.1525808 -0.05503979 -0.06305939 -0.00054461136 0.017044596 -0.081773296 -0.13092855 0.078816615 0.059598967 0.051456567 -0.01792667 -0.019905882 0.13389964 0.040159762 -0.09529195 -0.19072205 -0.1299343 -0.02605844 -0.075833775 0.14503235 0.08144745 0.18071695 -0.055351492 -0.040691264
个人 -0.03856609 0.027618255 0.122568116 0.04387141 -0.27553755 0.07761903 0.052609928 0.070987165 0.021103464 0.085253075 0.06776724 -0.20616439 0.05164367 -0.16496006 0.10609329 0.09906508 -0.35767257 -0.040244937 0.19434273 -0.016646199 -0.11470792 -0.027529627 0.041059345 -0.08884475 -0.014470026 -0.07309539 0.0006468408 0.070827305 -0.13817814 -0.15376893 -0.09307195 -0.31881812 0.0114663355 -0.00029817503 -0.10367116 0.062388107 0.014649408 -0.023935564 0.08612631 0.059385728 0.049449172 -0.053654075 -0.027191913 -0.0906585 0.4642763 -0.23735607 -0.022591177 -0.15484317 -0.23844853 -0.079926595
环境 0.17483613 0.14967355 0.20907784 0.042802364 0.04325743 0.078748435 0.17831993 0.34442165 0.053046174 0.29068363 0.2107919 0.042796016 0.14259347 0.06178401 0.02041388 0.13850126 -0.0065826215 0.15183827 0.011418864 0.048392445 0.17637028 -0.25223905 0.034251764 -0.02196072 0.15506926 -0.062247023 -0.027944915 0.16534942 -0.035647593 -0.022250991 0.26775253 -0.18924442 -0.1155972 0.25681457 -0.0695902 -0.02892907 -0.09919497 -0.031612694 0.08463373 -0.05752144 0.061818123 0.12858897 -0.08611189 0.097506136 -0.21003881 0.049082078 0.095354445 0.029971289 0.16983657 -0.16684939
年代 -0.018471606 0.18256716 0.09626372 0.13217631 0.18217115 0.078164116 0.05695651 -0.0570142 0.14784998 -0.00090792775 0.19610155 0.14535132 -0.045762636 0.22746083 -0.114905424 -0.162137 -0.08304797 0.013444502 -0.03474836 -0.08040512 -0.18036455 0.050496124 0.12549266 0.27901995 0.096316256 0.000885129 0.10322401 -0.12550078 0.012440532 0.08704881 0.020972118 0.29262424 0.052925084 -0.13126554 -0.03587713 0.029205922 -0.054553255 0.24871938 0.105009116 -0.12831217 0.032599244 -0.17201461 0.26697266 -0.09467222 0.029777024 -0.06804858 0.17449528 0.17883669 -0.08429685 -0.20898536
资料 -0.18421525 0.23144867 0.093592964 -0.051776484 -0.0910273 -0.027944416 -0.059565857 -0.016156675 -0.112238094 0.0144697465 0.27890223 0.06646086 -0.12353715 -0.20447755 -0.09761992 0.38417095 -0.16436201 0.10730077 -0.12087939 -0.07234417 0.16661909 0.07440996 0.03727234 -0.15915692 -0.12507239 0.10080874 -0.2528114 0.017260859 0.105899855 -0.29808488 -0.2751044 -0.014346477 0.010837931 0.07683057 -0.058110394 -0.10406919 -0.010009356 -0.008808047 -0.10142536 -0.14291261 0.027157117 -0.05528041 0.058577754 0.074789196 0.09415969 0.08529703 0.25326586 -0.13839468 -0.12692039 -0.11295277
理论 0.06778631 0.028558962 0.14320698 0.11473261 0.30849743 0.23260316 0.10752003 0.09520303 0.12927027 0.08727953 0.118565485 -0.018557891 0.2101714 -0.0068810172 -0.031365342 0.032954775 -0.09188309 0.16824748 -0.06885242 -0.12423132 0.09166697 0.11577189 0.015359096 -0.045862004 0.052453704 0.08760704 0.014472194 -0.12841782 0.06912066 -0.10232868 -0.09543973 -0.03135346 -0.19158769 -0.049919963 0.008375704 0.14703311 -0.22466354 -0.044846103 -0.14703676 0.032279912 0.10867839 -0.09896998 -0.16714941 -0.21482152 0.2605551 0.03354297 0.2351734 -0.081353545 0.07013515 -0.32301116
时候 -0.045913946 0.23764074 -0.0036434084 -0.11761019 -0.010170566 -0.056189246 0.26054263 0.25540096 0.090103865 0.0538598 -0.13306406 0.13382012 0.027515255 -0.21115965 -0.022227697 -0.045848902 0.15202111 -0.08359164 0.22022045 0.054686636 0.08879712 -0.21640792 -0.04584083 0.11496196 0.035828426 -0.09845893 0.012211427 0.20113577 -0.020607602 0.19102171 0.025334962 -0.029911272 -0.121648975 -0.10213752 0.09042244 0.07970643 0.03215174 -0.13861272 -0.23855583 0.075528026 -0.19708812 -0.092950836 0.08903781 -0.122630134 0.22191781 -0.23529997 0.010938991 -0.0722787 0.01832851 0.12649147
艺术 0.24120001 -0.19294423 0.006434001 0.10289634 -0.010062905 0.08510352 0.26008478 0.043909527 0.052339587 0.08725719 0.24160284 -0.11677836 0.004721865 0.16448537 0.10530948 -0.2003703 -0.15876898 -0.17976305 0.043148153 -0.05338013 0.14463368 -0.01767895 -0.07571529 -0.24799365 0.0760594 0.17082487 0.035298496 -0.014104344 -0.05984384 0.021567702 -0.06715734 -0.1495797 0.056988485 -0.036216013 -0.2119422 0.06045729 0.00040764548 0.39194945 -0.013449436 0.21671888 0.03930787 -0.04299745 0.2770414 -0.020889983 0.128738 -0.08098666 -0.028986625 0.06423305 -0.11390588 -0.06749614
内容 -0.050746333 0.20751727 -0.007897288 -0.15697484 -0.006909035 -0.08265886 -0.017658778 0.15995511 0.08859193 0.036762934 0.0067309323 -0.1608294 -0.22009632 -0.08437112 -0.16843872 0.012327902 -0.22082436 -0.027452424 -0.022990825 -0.28299198 0.07288038 0.07096043 0.0057139397 -0.19649813 0.029049575 -0.011014365 0.17249292 0.076186575 0.13345495 -0.20091698 -0.25189 -0.108612224 0.03623215 0.09391534 -0.11349202 -0.1949382 -0.26220277 0.026680721 -0.116883494 0.12119134 0.21658038 -0.02308575 0.017803837 -0.026332524 0.24508002 -0.1897856 0.12655045 -0.109311596 -0.04223797 -0.009651367
海拔 -0.019674212 -0.0067674303 0.19545746 -0.025891084 -0.0035960823 0.04523035 -0.2442178 -0.18748558 -0.23602116 -0.058437757 0.24226853 -0.10780897 0.16648117 -0.12735477 0.10542743 0.20710418 0.05257365 -0.08209607 -0.011429861 -0.38474616 -0.06276032 -0.07952987 -0.23210451 0.26115313 -0.050952252 0.0940132 -0.2477847 -0.13780269 0.07501553 0.094406635 0.044999167 0.0372286 -0.14448546 0.08992179 -0.07621407 0.17992559 0.04306224 -0.015022233 -0.03464604 -0.19705915 -0.12409498 0.0076682344 -0.21494839 0.07296382 -0.21391258 0.17844342 -0.05871234 -0.05649733 -0.04984976 0.011858098
飞机 -0.16558251 0.12571926 0.09810613 -0.22613764 -0.0644467 -0.25810945 0.06355599 -0.031467482 -0.1285431 0.023028724 -0.07136503 0.31989327 0.02221134 0.08082098 -0.0074239373 -0.024997225 -0.13811772 0.14746541 -0.043303967 -0.015805705 -0.104276925 0.030095696 -0.2951214 -0.12862034 0.11751479 -0.09686646 -0.21332164 -0.014612019 -0.016373212 -0.06633113 0.16063958 0.07120449 -0.1570197 0.13338505 0.30621877 0.14758031 -0.1028873 -0.106239505 0.06554042 -0.11815794 -0.06445818 0.062064163 -0.044953942 -0.024680708 0.064524576 0.2894805 0.072507605 0.23447165 0.10401733 0.15817344
功能 0.1136826 0.2827714 0.1323851 -0.11540599 -0.19629556 -0.018179294 0.034128316 0.09033491 6.053876e-05 0.12390891 0.06265676 -0.19272868 -0.018915482 0.04106782 -0.24820168 0.024330562 -0.21846431 0.12813112 -0.12603822 -0.07422186 0.06373891 0.00707376 -0.16950658 -0.24286845 -0.067982905 -0.033401445 -0.20963496 0.2862046 0.09546548 -0.14114606 0.03417661 -0.11925985 0.08703677 -0.2636106 -0.08074637 0.027358111 -0.00088625774 -0.110716954 -0.017769495 -0.14186901 0.04931967 -0.018751524 -0.08520566 0.13116752 -0.09493824 -0.050827112 0.030306328 -0.12638855 0.07183727 -0.05038698
水 0.20531686 0.09840391 -0.097667165 -0.18023212 0.058472183 -0.09632687 0.050396394 -0.04917938 -0.0074513257 0.07831229 0.08511089 0.042087425 0.06825518 0.13878234 0.04225325 0.16381048 0.13198966 0.008320771 -0.024116568 -0.019638643 0.28837153 -0.22274728 -0.07523407 0.13088407 0.2622722 -0.11530239 0.07153529 -0.10618299 0.0983946 0.10235025 0.23824352 0.14052495 0.00078300387 0.008982576 0.1822902 0.013295077 0.15401006 -0.13219488 -0.101264276 0.0039336868 0.05953046 0.044285294 -0.2770837 -0.034030017 -0.3079644 0.032259505 0.027642198 0.033319145 0.10785565 0.1669975
机构 -0.08088674 0.022500532 -0.0903991 0.06224395 -0.04308779 0.06341156 -0.23643759 0.20134136 -0.0050058346 0.13694313 -0.13870671 -0.13366222 0.048870116 0.088984855 -0.045127273 0.0120439045 -0.09056302 0.17602086 -0.22978476 0.16430852 -0.12279654 -0.061878376 0.13322178 -0.10793406 0.020388737 -0.052213836 -0.18072289 0.051253207 -0.09576371 0.016538981 -0.18140541 -0.33590233 0.13855672 0.21422227 -0.08915361 0.13805412 -0.09203328 0.23849586 0.08937163 0.064224035 0.0004651714 -0.121356 -0.007384993 0.05319248 -0.15568036 0.099040926 0.0074451827 0.034439895 -0.22725058 -0.28804004
轨道 0.2646557 0.11926769 0.053100597 -0.03832073 0.12626621 -0.15666173 0.068777725 0.122244835 -0.057907075 -0.14893496 0.02906321 0.12958188 0.12829119 0.036006883 0.22057647 0.32828027 -0.039578356 0.35704765 0.0666927 -0.18566483 -0.025462568 0.19622873 -0.054842375 0.025459584 -0.18062386 0.097867526 -0.1061428 -0.1271013 -0.018591926 -0.12262656 0.13839802 0.064510845 -0.051082388 -0.03798549 -0.010509349 0.25357845 -0.020750988 -0.11735077 -0.19960019 0.11164223 -0.011823118 -0.06790849 -0.11696321 0.20311275 -0.16514938 0.10347044 0.05279367 0.02447775 0.15880722 -0.072000645
联邦 0.101615995 -0.026782298 -0.025619734 -0.02373153 0.06475183 -0.08344342 -0.3334293 0.16842255 -0.18742669 -0.113168195 -0.33389574 0.042999454 0.035989 0.06454654 -0.044867665 -0.20160916 0.07291901 0.109457575 -0.17013803 0.04334128 -0.14339305 -0.08146993 0.046630647 0.07806206 -0.17300268 -0.0136750415 -0.17345943 0.048695277 0.0154221505 -0.019694734 -0.06870435 -0.102069184 -0.007986054 0.32451952 -0.13045874 0.09144462 -0.15373057 -0.07256095 0.2147974 0.030436765 0.013025779 -0.21004917 -0.044803336 0.05621323 -0.050581302 0.081655234 0.09693611 -0.14999656 -0.11359514 -0.201998
标准 -0.0047548786 0.36519158 0.13969149 0.16721937 -0.18974899 -0.01266136 -0.23895925 0.105710655 0.10902369 -0.05316328 0.0411432 0.08638397 0.025655366 0.1735968 0.03261508 -0.07528616 -0.06682347 0.17898335 -0.1264508 0.04326479 0.07830044 0.055212364 -0.04232592 -0.139608 0.070307046 0.05930291 -0.024329573 0.10927709 0.21892211 -0.049773157 -0.044194452 -0.18195924 0.16347629 -0.013545837 0.22954026 0.057484098 -0.21539941 -0.106592216 -0.058217816 -0.07870633 0.27605194 -0.072771825 -0.117512345 0.16045949 -0.02580589 0.08716661 0.014569193 -0.015688762 -0.01728072 -0.05756565
单位 0.13287488 -0.04387554 -0.1121213 -0.062043585 -0.21205726 -0.17569828 -0.07806927 -0.05186572 0.099508464 0.041647524 0.044555657 -0.13617836 0.019604042 -0.036404394 0.12433979 0.12633388 -0.015294209 0.3803589 -0.029469542 0.025004838 -0.048023067 0.043911494 0.015517088 -0.04885164 -0.15514706 0.20538001 -0.026766129 0.020481223 0.017928898 0.15528202 -0.026234347 -0.1177325 0.08797694 0.056872077 0.009572025 0.065131076 0.0894007 -0.042553686 -0.041827045 0.124657765 0.052961838 -0.12624858 -0.11843893 0.015985178 -0.14214885 0.4410878 0.05762835 0.0039929403 0.08608291 -0.30972433
项目 0.117498405 0.23278591 0.037038222 -0.0035781972 -0.17808989 -0.10751284 -0.047192678 -0.18788877 -0.04589607 0.30657232 0.049623955 0.054304294 -0.17595789 0.122272216 0.22977152 -0.06264461 -0.054351114 -0.00048764795 -0.054151125 0.11258775 0.008394033 0.20037164 -0.15566853 -0.15655103 0.030068554 -0.1081947 0.101071 0.04048655 -0.15304087 -0.046603814 0.12865469 -0.36083633 0.07781998 0.08250179 -0.08907901 0.058080196 -0.029394135 -0.06609808 0.010819763 0.06945392 0.058750786 -0.11482013 -0.1475912 0.116473004 -0.121406645 -0.04918739 0.03214723 0.05479753 -0.15512434 -0.34129986
学名 -0.15710573 -0.08419649 0.09550449 0.16492394 -0.10820128 0.2575143 -0.059475303 -0.02499402 -0.061076943 -0.19382288 0.12602174 0.10387588 -0.004977567 0.07660623 0.024269247 0.058056653 0.10272894 -0.14127988 -0.2906167 -0.24399295 0.09152051 0.07243249 0.0030652657 0.12417158 0.09328213 -0.06831413 0.059836447 -0.013164625 -0.019171685 0.060531836 -0.0022778288 0.052700743 0.013127282 -0.042298194 0.20540485 0.022048071 0.0043979436 0.2136644 0.10925731 -0.11846776 -0.18412921 0.026022963 -0.29141498 -0.052636065 -0.3400658 -0.056712642 -0.10608905 -0.10972548 0.18590388 0.24910001
话 -0.21586218 -0.032077007 -0.073403716 -0.053500175 0.14004107 0.06572536 0.06669523 0.14433187 0.12483778 -0.03269608 -0.13533334 -0.12126766 -0.09583302 -0.22159424 -0.070023425 -0.17443511 0.093590036 -0.02356987 -0.008488074 0.018795207 0.10148402 -0.11865233 -0.0066858903 -0.10058893 0.007823613 -0.17777348 0.118660435 0.10298297 0.15264298 0.28670478 -0.035067767 0.05380285 0.13668248 0.12842171 0.041388392 0.05367859 -0.06958031 -0.21976107 -0.28836468 0.018152598 -0.029951073 0.075921446 0.05069951 0.025720108 0.26163456 -0.16286933 0.09168294 -0.12739748 0.2146284 0.21638122
词 -0.059135843 -0.06361548 -0.032516234 0.1371792 -0.15156093 0.13064405 -0.05177072 -0.02525495 -0.12669699 -0.023225255 0.0332366 -0.16490254 0.19284537 -0.0012989044 -0.1326676 -0.11190064 0.06290938 0.16474478 -0.051367167 -0.21049684 0.2609897 0.01563283 0.13742462 0.18177488 0.046456255 -0.0380881 0.11924043 -0.0054176385 0.21735905 0.09409641 -0.11831333 0.12474705 -0.110269025 0.105957255 -0.016115855 0.06682549 -0.045124397 0.016097233 -0.22147375 0.11554952 0.07375634 -0.23088275 0.024048954 -0.15147492 0.3199754 -0.17393692 -0.17522098 -0.042655423 0.13967142 0.014527187
会议 0.03692741 0.094083704 -0.10526424 -0.15861616 0.108018726 0.078073226 -0.013782226 0.11028789 0.1892809 -0.023613881 -0.29049358 -0.08612783 -0.12871644 -0.09287152 -0.23583728 -0.10345995 -0.03284818 -0.052268695 0.025397643 0.11393127 -0.12116133 -0.07427725 0.08968231 -0.06520018 -0.08933751 -0.020917974 0.102730006 -0.12415134 -0.040018946 -0.24990441 -0.12182531 -0.2495841 -0.1437874 0.22689119 0.22073019 0.15084553 0.018925495 0.15152025 -0.02594853 0.04649974 0.1899307 -0.080114335 -0.03717099 0.17061776 -0.10927411 -0.015776725 -0.24249084 0.017333988 -0.075559184 -0.34491083
集团 0.07005373 -0.10274105 -0.11932798 -0.09741334 -0.032182295 0.10452095 -0.12508252 -0.043791942 -0.052378703 -0.085867055 -0.2825449 -0.080463804 0.092412665 0.11403182 0.042019393 0.060347494 -0.22817673 0.19088978 -0.052171327 0.21927017 -0.35131288 0.33779085 0.018881202 0.14791164 0.2221489 -0.09653535 -0.07130912 0.026399337 -0.13766067 -0.06258645 0.10826483 -0.033809528 0.029493958 0.13252915 0.020643238 -0.11546919 0.007342823 0.26222223 0.10869205 -0.034657057 0.010148039 -0.0013075471 -0.12315355 0.16367373 -0.01992747 -0.001046814 -0.007527545 0.20220171 -0.10590573 -0.07609872
交通 0.106740296 0.19297138 0.03755005 -0.041106388 -0.019945014 -0.010197401 -0.12782796 0.13113415 0.01613891 -0.14356759 -0.06322503 0.12969783 0.08549353 0.1865539 0.16134244 0.2647519 0.08814059 0.21106414 0.014465336 -0.10709234 0.040349696 -0.17511918 -0.0840304 -0.03709124 0.0975782 -0.024609372 -0.1023658 -0.13191465 -0.11039038 -0.14568245 0.1025916 0.13479066 -0.18030208 0.0983998 -0.24499106 0.17252848 -0.20801586 -0.21616945 -0.026947647 0.0026043393 0.02397468 0.031613704 0.16681029 0.1667581 -0.23345588 0.070089355 -0.004556395 0.25895017 -0.0041450225 -0.079037145
模式 -0.09967812 0.041855816 0.3771686 -0.096181124 0.022390433 0.03140068 -0.046605416 0.14805871 0.060724318 -0.08221807 0.13587959 -0.07223773 -0.02089309 -0.07024859 -0.088546686 0.11615504 -0.1084866 0.17571391 0.1738109 -0.21991201 -0.07065237 0.058053244 -0.155718 -0.053445246 -0.037996538 -0.065954275 0.033475235 0.21686277 -0.19163366 -0.13983229 -0.058247566 0.022644743 0.05551839 -0.24905024 0.02314743 -0.04422304 -0.25840998 -0.13330837 -0.016663142 0.027875107 0.056671098 -0.2490317 -0.25837296 -0.08614352 -0.14913952 0.03131752 0.007027615 0.006744519 0.12751913 -0.014131751
小说 -0.14314619 0.007817224 -0.09728286 0.077474356 0.23850669 0.03322961 -0.12674692 -0.09984362 0.048769604 -0.0065143704 0.0048691705 -0.06846551 -0.0633314 -0.007837802 0.114980064 -0.20831181 -0.26047304 -0.043974005 0.114160985 -0.2602696 0.124878064 -0.0006371876 -0.07024503 -0.08201836 0.019814137 0.01168225 0.24421388 0.12568973 -0.005866058 -0.08788796 0.02277276 0.17002644 -0.02449858 -0.04501302 -0.12069607 -0.20194285 -0.07721762 0.13891469 0.007132313 0.0348884 0.17732942 0.022027194 0.22786549 -0.23800698 0.18382059 -0.1988996 0.20580369 -0.13232248 0.2795658 0.056121476
奖 0.042394996 -0.15756804 -0.27985755 0.41151363 -0.16639076 -0.009179413 -0.021822967 -0.1260318 0.17831834 0.106984116 0.24225016 0.025233068 0.0070340037 0.089447424 0.13185075 0.0012013987 -0.18580705 -0.13223343 0.055515945 -0.10534544 -0.02153911 0.004684385 0.18283904 -0.17587098 -0.24654037 0.17037666 0.116519675 -0.004679203 -0.06067714 0.013723204 0.1032705 0.0056826696 -0.0997611 -0.042579744 0.048192568 -0.094530776 0.044062275 -0.023220636 0.122173876 0.20445088 0.18252076 0.017764859 0.013566382 -0.01272268 0.12354977 -0.089745365 0.017623402 0.09398483 -0.061672915 0.053434074
名字 -0.23656222 0.014604121 -0.0674764 0.017728552 0.0075855404 0.016547255 -0.10436952 -0.13760346 -0.21616276 -0.06865922 0.03991844 0.23279469 -0.049750276 0.036957845 -0.04856298 -0.05976048 -0.0052993074 0.19855514 -0.0314544 0.0049984604 0.3227435 0.116017506 0.119049594 0.10107994 -0.024059653 0.018502548 -0.06932173 0.08528185 0.10670088 0.09714617 -0.12008807 0.0076186955 -0.22036266 -0.07150996 -0.07126508 -0.12146653 0.13145329 0.041105244 -0.10338616 0.1422688 -0.057146523 -0.030473724 0.22078195 -0.08737302 -0.009365957 -0.26218835 -0.17446646 -0.17109208 -0.049169328 0.23028918
军事 0.001052551 -0.13755947 -0.013081931 -0.19885357 -0.004226757 -0.11898747 -0.23355792 0.09998367 0.2145059 0.11279453 -0.147634 -0.010977477 -0.040839195 0.23830701 -0.11134833 -0.02996741 0.05588609 -0.01588345 -0.13156079 0.33203405 -0.13519695 -0.21596509 -0.16141826 -0.0004335642 -0.09363459 0.06742126 -0.09935614 -0.03542149 -0.13933074 -0.18956405 -0.09754227 0.051351722 -0.30316156 0.27490556 -0.029523848 0.08790438 -0.068629466 0.19237939 0.004661441 0.1072029 0.027109683 -0.10878794 0.059075415 -0.16865596 0.04979685 0.1414901 0.021330824 0.046715096 -0.016527854 -0.17233379
范围 0.14878428 -0.06807241 0.31573296 0.0045480877 -0.22787188 0.09091718 -0.0120852245 0.24170779 -0.00057023764 -0.1588325 -0.000360094 0.09597024 0.096858494 -0.022121996 -0.05675039 0.155157 0.14150403 0.15142423 -0.14161128 -0.15262428 -0.11991481 -0.19387247 -0.047735065 0.16445123 0.031893104 -0.071775034 -0.1026658 -0.11833139 0.09055062 -0.00033010542 -0.14609362 0.0042785555 0.22757684 0.073686615 -0.02954518 0.104992814 -0.091709524 -0.016838212 -0.085933745 -0.10735561 0.12284294 0.10221861 -0.098388165 0.04764236 -0.31852818 0.20243385 0.116012886 -0.09621848 0.101036124 -0.23028924
太阳 0.122573346 -0.031951673 -0.022238076 -0.03299928 0.18886016 0.02231858 0.11137873 0.06379703 -0.14834495 0.014914259 0.09286271 0.05537431 0.20818424 -0.041074038 0.12722519 0.20034249 0.047523424 0.21795255 0.17466864 -0.07635543 -0.025381088 0.046095427 -0.026922572 0.23699242 -0.075401366 0.23568238 -0.04233716 -0.046746142 0.029693142 0.108477026 0.20451163 -0.04539452 0.21733609 -0.046956055 0.17212181 0.0780882 0.15123585 -0.028506465 -0.23167448 0.2549807 0.02659948 0.021449385 -0.09964622 0.16085306 -0.0016747788 0.024685986 -0.004524284 -0.3512722 0.10088108 0.016387213
字 -0.08176018 0.046392962 -0.09091245 -0.026160274 -0.06833728 0.078769825 -0.06519232 -0.19119695 -0.13356324 -0.22808766 -0.00044999272 -0.018099368 -0.03448361 0.07424376 -0.09871791 0.05174823 -0.013841212 0.09303936 -0.12092837 -0.0018418729 0.3508982 0.14914839 -0.045635708 -0.08937688 -0.061305173 0.027341854 0.18834932 -0.07123615 0.31338313 -0.0048435032 -0.04739832 0.1490869 0.023967067 -0.16423887 0.080768906 -0.063598126 -0.14439556 -0.0052825883 -0.1581541 0.036645826 -0.07877103 -0.013274364 0.08203361 -0.00047039986 0.21458831 -0.023342974 -0.23308966 -0.23859799 -0.042610265 0.10841892
形式 0.21251966 0.07395187 -0.0051290356 -0.14310378 -0.033570785 -0.022803888 0.11648728 0.0923032 0.081989415 -0.035173684 0.13328803 -0.2286024 0.189405 0.012217253 -0.040026903 -0.13023935 -0.16079782 0.1513637 0.05907134 -0.18967476 0.24367087 0.15047011 0.029867768 0.07181303 0.011153562 -0.08212345 0.029086344 0.083754405 0.2754996 -0.057345726 -0.23668925 -0.03192287 0.16867349 -0.092872806 -0.054968473 0.15072706 -0.19374675 0.13968125 -0.0569299 0.1657073 0.21737956 -0.17004834 -0.08281332 -0.1174822 0.17971537 -0.15818633 -0.06298356 -0.07171705 -0.07180836 -0.12674007
银行 0.0071351975 0.08465562 -0.13458979 -0.02168186 -0.10412155 0.27852845 -0.21206242 -0.030033778 -0.05836214 -0.047040224 -0.35583466 -0.06294863 0.10854461 0.05030162 -0.12518178 0.022989865 -0.013307422 0.2123709 0.10112545 -0.007928383 -0.03923312 0.1484158 0.004496634 0.07830408 0.06606007 -0.05911 -0.1402759 0.16337502 -0.2752384 0.12365186 0.024552055 -0.07886251 0.1792455 0.041598283 0.021994201 0.15947612 -0.25001213 0.19641165 0.33057725 -0.042830467 -0.21374533 -0.10804294 0.09607356 0.040268965 0.06278992 0.064006686 0.017250638 0.10584876 -0.31677762 -0.18497044
运动员 0.0031867279 0.13996832 0.116667874 0.14677863 -0.23289034 -0.07150529 -0.055913214 -0.11065175 -0.18766531 0.19612059 -0.12208228 -0.03964832 0.052239988 0.13443261 0.3464908 -0.14176345 -0.01687397 -0.28808653 -0.044450477 0.060253523 -0.094995216 0.031202761 -0.10648269 0.031614803 -0.32003593 -0.049256768 -0.022465095 -0.20691729 0.079856426 0.105690286 0.066817656 -0.12406106 0.04705152 -0.10807443 0.13833244 0.2301571 -0.020249613 -0.13145518 -0.03784944 -0.04227152 -0.1843585 -0.089243494 0.04854636 -0.09821742 -0.10732823 -0.16505322 -0.12321156 -0.17262663 -0.16847776 0.098347284
女子 -0.13996595 0.12386444 -0.011485219 0.0877555 -0.1222289 0.063198425 -0.15052739 -0.16803122 -0.0909004 0.0215232 0.11144068 -0.07269731 0.22601032 0.06740392 0.46439183 -0.1472897 0.04616697 -0.32098737 0.14679784 0.011819057 -0.014776045 -0.034133658 0.034720834 0.0037170388 -0.18368131 -0.106112935 0.005199002 -0.056815557 -0.14257419 0.08424206 -0.08657716 -0.1328992 0.14630067 0.045291804 -0.015899608 -0.15189134 0.3076694 -0.04649832 -0.081397265 0.037970632 -0.1698421 -0.083147004 -0.030367605 -0.09844124 0.044861138 -0.1569503 -0.18650469 -0.0030257553 -0.27691233 0.018497556
协会 -0.05721987 0.027317937 -0.14437762 0.4011668 -0.2047271 0.16752663 -0.12018865 0.010638475 0.04285521 0.19762549 -0.06631122 -0.025667936 0.006563498 0.044510767 0.06997448 -0.17607878 -0.26922515 0.005818613 0.069269374 0.16935511 -0.011663295 0.004270658 0.19751516 -0.0859277 -0.119808495 0.00115522 0.10995798 -0.035661213 -0.06770461 0.062584236 -0.08526294 -0.2808221 -0.026867043 0.10975589 0.10850107 0.006217651 -0.029855173 0.25079817 0.09629083 -0.13131732 0.18492007 -0.100684375 -0.011392152 0.06248848 -0.17809625 -0.0061336607 -0.15817697 0.14061701 -0.031286374 0.11805926
电子 0.0029692128 0.17628318 0.034941543 0.024952557 -0.18017027 -0.06344642 0.10280195 -0.04983744 -0.06894427 0.07420944 -0.070929155 -0.034579895 0.31351745 0.111326665 -0.16617371 0.29739702 -0.2286753 0.18709128 -0.095144734 -0.10868771 -0.093891814 0.21799305 -0.013938732 -0.23082003 -0.07601975 0.12736529 -0.27433452 0.15449755 0.09189455 -0.061748672 0.1946159 0.15505372 0.033489786 -0.14051501 -0.016254917 0.051340055 0.018407084 -0.111101426 -0.0666966 0.08600205 0.2339805 -0.20257065 -0.08432686 0.053011406 -0.017483458 0.047179803 0.07186331 0.16225225 -0.2530759 -0.04895115
任务 -0.13869363 0.035545323 0.16836774 -0.24653697 -0.030518875 -0.30627555 0.15496479 0.10151473 0.082203425 0.08956667 -0.13616957 0.12637953 -0.21992275 0.0120940935 0.13732097 0.058545753 -0.06868714 0.2469288 0.039293602 0.061859637 -0.14519772 -0.13565384 -0.15860003 -0.22695577 -0.2008538 -0.08299644 0.005042672 0.09176327 -0.16557406 -0.20854005 0.111684516 -0.14961636 -0.2269372 0.11797474 0.11665698 0.09534976 -0.0085361935 -0.02242089 -0.040710434 0.14281553 -0.005559288 -0.092677176 -0.13712984 -0.12537129 -0.17725888 0.029092478 0.11208212 -0.003967747 0.13859892 0.03478843
市场 0.06987423 0.007902302 0.06824329 0.13595438 -0.28088936 0.09782998 -0.041365497 0.027214997 0.28912872 0.00930085 -0.09133333 0.046399564 -0.025101885 0.1137806 -0.17655753 0.07126622 -0.15553099 0.21958554 0.013949357 -0.050495528 -0.11502886 0.15075779 -0.020683229 0.13217174 0.42811897 0.038601268 -0.040555805 0.120677516 -0.18543176 0.010195321 0.06659858 0.00019967556 0.17165703 -0.11069792 0.056749687 0.090900235 -0.10060495 0.02781625 0.23087609 0.021983393 0.027272262 -0.041863665 0.10088265 0.19008006 0.10386773 -0.08012705 0.016997807 0.16688232 0.08469597 -0.2273365
行为 0.052330524 0.08299249 -0.009857222 0.0116491765 -0.19712818 0.116638705 0.038137794 0.34353518 0.11797553 0.02671859 -0.106627084 -0.022476349 0.2659504 -0.07156044 0.034706984 -0.023227982 -0.0745844 -0.009393135 0.054375134 -0.06492881 0.05021195 -0.15556249 0.12650749 -0.087757945 0.09872652 -0.2328814 -0.0018193424 0.0420139 0.02532009 -0.16731775 -0.113504454 -0.18461691 -0.26834187 0.10062924 -0.05669671 -0.13415945 -0.16997355 -0.1995791 0.10475217 0.23023888 -0.15045303 -0.025555909 -0.13212694 -0.18775043 0.2286018 -0.16316602 0.1785374 -0.15248382 0.07875052 -0.08942735
赛事 -0.020547418 0.16697468 -0.04435922 0.08225429 -0.21340469 -0.014767118 0.010816686 -0.012200918 -0.052052595 0.21618986 0.09687054 0.10315886 -0.033722512 0.065560095 0.2412903 -0.016168185 0.027973067 -0.19044958 0.16023216 0.25258586 -0.21855251 0.24126787 -0.07852796 0.2155191 -0.22127105 -0.11872412 0.1435031 -0.023030559 -0.015424259 -0.061532184 -0.29378825 -0.09455908 0.13345641 -0.100463495 0.15905373 0.066915885 0.020251762 -0.17971635 0.078939304 0.07932252 0.028595295 0.19508156 0.059737004 0.14596376 0.0017612018 -0.020302147 -0.21187797 0.0719381 0.06886222 -0.0077215433
军 -0.026496096 -0.22326382 -0.14744398 -0.20034254 -0.19932726 -0.1553634 -0.058310963 -0.00065038353 0.054597363 -0.15234232 -0.1689762 -0.060308915 -0.20670708 0.032670468 -0.070521474 0.020766385 0.2720005 -0.080240205 0.01608672 0.3272888 -0.20741662 -0.18116617 -0.20310609 0.11731222 -0.064956665 0.0336795 0.079854116 -0.18119425 -0.07522701 -0.046820603 0.056058638 0.16510677 -0.20787993 0.06659779 0.047682427 0.021573856 -0.031822428 0.0020083282 -0.103211135 -0.09796776 -0.005144784 0.10530099 -0.1629605 -0.16773552 0.085107386 0.19567057 -0.035965815 0.0021045133 0.11450703 -0.0354502
区域 0.27703884 -0.10927111 0.29826212 -0.049322642 -0.04336892 0.0759722 0.06651796 0.18867883 -0.14448218 -0.08586781 0.03696347 0.013674609 0.0011559278 0.029453855 -0.10954336 0.15808384 0.25814465 0.23156044 -0.019334333 0.03935878 -0.015565008 -0.0053966865 -0.12953317 0.13315204 -0.0545142 -0.16498616 -0.19826962 -0.06684718 0.093344726 -0.03017972 -0.0220909 0.0018881187 0.046077665 -0.004521977 -0.099325895 0.011401052 -0.028927717 0.07256245 -0.02848208 -0.08142874 0.09457092 0.097809464 0.06750092 0.22690398 -0.47237754 0.20599516 0.12222948 -0.033940338 0.19081327 -0.18818012
区 0.16637951 -0.19629435 0.066794015 -0.01484701 0.041561216 -0.028527722 -0.0659564 0.0013347082 -0.10297969 -0.0954603 0.014678935 -0.105296426 -0.06511019 0.013710808 -0.11655085 0.07416447 0.21836293 0.09206051 -0.06083617 0.018871645 0.07402295 0.008460697 -0.01393608 0.043814234 -0.08494941 -0.1465218 -0.11542396 -0.15272208 0.0048400015 0.15079115 0.040045716 -0.045413114 0.09832933 -0.07164523 -0.20044146 0.030896435 0.041046526 -0.20309258 0.06554549 -0.24097456 0.10425065 0.06500406 0.08858011 0.2587751 -0.35085213 0.2594902 -0.08093489 -0.011550888 0.040676314 -0.16622368
歌曲 -0.008263744 -0.055490702 -0.029085115 0.04079018 -0.19696596 -0.11313073 0.106730774 -0.048041426 -0.14168379 -0.057007857 0.25659633 -0.29663426 -0.085627824 -0.032941587 -0.10581126 -0.09681079 -0.07079449 -0.07932826 0.06638107 -0.2750706 -0.14939491 -0.019894868 0.15230477 0.11817466 0.009838879 -0.023345482 0.19370627 0.117835544 -0.029272065 0.19308707 0.07250783 0.010207497 0.0028423471 -0.042813048 0.012436006 0.10726554 0.07054336 -0.03049104 -0.12391277 0.09987274 0.22189182 0.005956635 0.13090384 -0.14499302 0.3537907 -0.28994524 -0.10029836 0.03292373 -0.14648336 0.028443232
地球 0.041393306 -0.04719076 0.10955831 0.018778725 0.2518747 0.009226602 0.20456034 0.090877324 -0.12880605 0.027804889 0.030089535 0.0782261 0.15279996 -0.053132858 0.06342867 0.216673 0.081308514 0.28620708 0.04843245 -0.050919406 -0.12232917 -0.05444978 0.004509829 0.08427075 -0.16737056 0.16118254 0.021468878 0.03160797 0.0791423 -0.10214023 0.16875392 -0.0073177293 -0.050644837 0.24898082 0.08846639 0.006122131 0.02979697 -0.03504069 -0.24175206 0.19098032 0.021324739 0.105735496 -0.09921635 0.0668507 -0.15852645 0.10802051 0.34321517 -0.12655233 0.21252933 0.04736859
议会 0.10940546 -0.0779625 -0.16133992 0.011147514 0.21695979 -0.05138551 -0.07830231 0.23857534 0.1137155 -0.16301428 -0.25289804 -0.123323716 -0.047421776 -0.042764433 -0.2897982 -0.11609717 0.042590328 -0.051090356 -0.07242991 0.12790357 0.06913669 -0.124684826 0.2376232 0.22552559 -0.06296781 -0.14682294 -0.0071915686 0.014785238 -0.053812906 -0.05825686 -0.048089877 -0.19360377 0.026940156 0.10975449 -0.069879055 0.13486348 0.015775904 -0.10061332 0.26075724 -0.10238968 0.062241558 -0.023076106 0.09655611 0.018898793 -0.13078184 0.06569068 -0.27736637 -0.12940547 -0.13172016 -0.21534197
电视台 -0.16948435 -0.054987907 -0.20711768 -0.16292399 -0.010838635 0.043638937 0.022259433 0.1592505 -0.047947366 0.008317709 -0.045570325 -0.15395884 -0.051872857 0.11679891 -0.0264467 -0.035104163 -0.031100363 -0.01658915 -0.026147144 -0.1480296 -0.27167553 0.101831004 0.22250614 0.088237226 -0.2575251 -0.0028280914 0.06676659 0.050358236 -0.14944571 0.22225288 -0.1888232 0.00046868995 0.3302567 0.15015998 0.06874088 0.07358292 -0.101549834 0.17410532 -0.07186939 -0.012384422 0.00034781685 0.06370878 0.11848591 0.299297 0.14832146 -0.048046652 0.046387326 0.17279734 0.12459603 0.13007207
小时 0.011065438 0.22813778 -0.1144436 -0.12461273 -0.094338804 -0.31476334 0.07685388 0.074679665 -0.15440574 0.10821171 0.010540083 0.12588528 0.015303681 -0.11978726 0.20635043 0.16011013 0.056259573 -0.008802347 0.033299513 -0.15540078 -0.2671328 -0.25014555 -0.13695559 -0.096357204 -0.13117622 -0.025690554 0.05804184 0.0168804 -0.09357356 0.19487363 0.09207407 0.07146748 0.22417092 -0.08281921 0.3929319 0.1698609 -0.1175708 -0.15379632 -0.023474615 -0.055474974 0.051690154 0.022374973 0.0005168468 0.08157696 -0.090180755 -0.038043525 0.12915432 0.04192675 0.22840282 -0.0043693185
工业 0.0362568 -0.061320998 0.10761565 0.15502706 0.0065315887 -0.11616999 -0.17285758 0.0005966574 0.07545107 0.13153158 0.0094941 0.08916566 0.175163 0.32269305 0.013724917 0.005503542 -0.06766662 0.13704754 -0.07152529 0.20910284 0.054695487 0.032310992 0.026298057 0.046448797 0.3459867 0.07638169 -0.1248195 0.053339407 -0.17511068 0.041606493 0.15287372 0.21026573 -0.08821464 0.14722776 -0.11143734 0.090773135 -0.0056976676 0.06963919 0.056087356 -0.14600974 0.1533892 -0.14530256 -0.008601896 0.13091101 -0.1860665 0.1751423 0.08264956 0.28512204 -0.20501608 -0.14759058
行政 0.09874091 -0.20037445 -0.06412518 -0.18589726 0.08037467 0.09451084 -0.20791093 0.20182638 -0.03459146 0.12747487 -0.2695109 -0.17358838 -0.061700344 0.032220796 0.0035480782 -0.017220888 0.038284864 0.122839645 -0.27472425 0.04404263 0.054476984 -0.12432195 0.09430177 -0.06563069 -0.09205754 0.020293439 -0.15982527 -0.12585804 -0.034113422 -0.00784825 -0.023937538 -0.2074643 0.04374443 0.07250548 -0.08404797 0.15189047 0.036775008 -0.006303938 0.10271403 0.092501074 0.0367438 -0.13260183 0.18102181 0.16441697 -0.11695646 0.22802061 -0.053564962 -0.054699793 -0.13937172 -0.23444271
书 -0.22264585 0.17097886 -0.2032699 0.13386576 0.21139306 0.024300039 0.049813915 -0.14529562 0.088412665 0.07749097 -0.09891429 -0.0775221 -0.10239948 -0.14665622 -0.15463547 -0.0022080438 -0.1955185 -0.028525945 0.06229113 -0.17823863 0.20687728 -0.030311221 -0.028756201 -0.05546689 0.19661985 0.15771759 0.24400601 -0.049197137 0.14497703 -0.06349827 -0.20667809 0.08027591 -0.1247638 0.04653627 -0.044734783 -0.13126098 -0.17953981 0.058457594 -0.15025583 -0.035646114 -0.009043083 -0.012813158 0.058019377 -0.2215866 0.26203746 -0.07581171 0.08100972 -0.25668222 -0.016799245 -0.00737739
法律 0.012492493 0.11043726 -0.041336566 0.08891231 0.04114839 0.21921168 -0.18827693 0.35440788 0.1478464 -0.0046465024 -0.24896985 -0.12604564 0.059471298 0.005979754 0.12840472 -0.062010877 -0.041306026 -0.052094877 -0.119227156 -0.17905724 0.04223895 -0.038925357 0.14993365 0.05412233 0.17777857 -0.061157126 -0.1197314 0.07529376 0.09195186 -0.15006703 -0.19437656 -0.23771419 -0.13411433 0.26102918 -0.16253938 0.074764915 -0.23356912 -0.05228419 0.13381499 0.12518117 0.04629697 -0.21204759 0.04242085 -0.10940052 0.013396949 0.039050333 -0.11961366 -0.20400673 -0.23248272 -0.08901146
植物 -0.037249535 0.075131804 0.055301383 0.030384354 -0.026459932 0.18535572 0.0655792 -0.01926072 0.024482492 0.05211135 0.26888916 0.009877599 0.052517034 0.06487645 -0.044554375 0.13469219 0.016327515 -0.12689279 -0.18787095 -0.07590343 0.2848856 0.10197019 -0.09681509 0.19804433 0.12447713 0.12619048 -0.07549242 0.14953089 0.1012847 0.100709304 -0.13502806 0.04562643 -0.10279773 0.1064523 0.031972304 -0.058969688 -0.043241635 0.21326865 0.16299596 -0.044232633 0.08978347 0.22469556 -0.31916183 -0.06735692 -0.36828864 0.036005046 0.020309523 -0.046607114 0.22883908 0.07089634
基础 0.05043699 0.09834687 0.15517797 -0.07451166 0.14928341 0.048013687 -0.036994204 0.016394421 0.26089436 0.1696534 0.091069244 -0.0051495973 0.09142866 0.2925247 -0.018150702 -0.15305416 -0.119796395 0.26818022 -0.16042608 0.024608463 0.065047644 0.015677467 -0.041845 -0.07931296 0.1228425 0.07011803 0.07325268 0.09812917 -0.003725471 -0.22082031 -0.107266985 -0.10996124 0.015397298 0.011474377 -0.2043271 0.16634974 -0.2390149 0.006880969 -0.061260365 -0.18433824 0.1222339 -0.13321325 -0.07459207 -0.06758027 0.02390571 0.09744673 0.04417736 0.047646694 -0.06994054 -0.2582703
原因 -0.056104574 0.22460613 0.1182601 -0.06365912 0.11748572 -0.02388835 0.068312086 0.34012434 0.032636963 0.1684872 0.10646963 0.13304333 -0.008403383 -0.16198151 -0.0247975 0.13184763 0.054788355 0.038930316 -0.008194357 0.121113464 -0.062335398 -0.15113859 0.08236858 0.08604136 0.23074974 -0.16188744 -0.0045041144 -0.035031304 0.1510309 -0.09916942 0.05732788 0.09959739 -0.17846756 0.14993715 0.1763786 0.022586167 -0.13584076 -0.15833579 0.09507776 -0.037582383 -0.15861657 0.14995837 0.043933816 -0.017948577 0.27888858 -0.18362407 0.28027493 -0.075513825 0.15467578 -0.19930246
年度 -0.10854149 -0.000976882 -0.14750554 0.26124012 -0.22342116 -0.061275832 -0.06597945 -0.13845266 0.16416413 0.09839745 0.110053256 0.015306428 -0.07578023 -0.0873987 0.08426147 0.12212669 -0.22857235 -0.13128099 -0.0045018494 0.053014264 -0.0865373 0.15013772 0.12600504 -0.06594284 -0.12659502 0.105084494 0.1288203 -0.20196058 -0.088013485 0.014452148 0.22922707 0.07045166 0.15655755 0.09157956 0.039371863 -0.040164195 0.013460338 -0.19796842 0.12625027 0.024547853 0.3065533 0.15930644 0.12474871 0.057557315 0.07659632 -0.06340433 -0.13375944 0.074001 -0.20287198 -0.0057294667
科学 -0.01582067 0.042844616 -0.025996469 0.23898198 0.10694373 0.106812075 0.23405567 0.08953817 -0.040658247 0.33952934 0.1133157 0.04370615 0.09455106 0.08115599 0.051964886 0.015186429 -0.059783883 0.1062673 -0.16912109 0.09964801 0.14150847 0.025904499 0.045294315 -0.2817013 0.044850744 0.20945409 0.005215954 -0.064518206 -0.10466311 -0.10604894 -0.1282387 -0.077686206 -0.17265347 0.20095676 -0.12940426 0.048556335 -0.18424913 0.15578482 -0.123523384 0.05086885 0.16099972 -0.0019482151 -0.08000313 0.05746357 -0.033359457 -0.05071172 0.20291126 -0.050248332 -0.11231409 -0.14812851
路 0.11058541 -0.014270037 -0.19460712 0.0034811236 0.030334564 0.025965456 0.014441818 0.03557037 0.010067925 -0.110005215 -0.022441983 0.1719233 -0.055961393 0.18956709 -0.14436565 0.18617725 0.20807512 -0.06942761 0.14349408 -0.006120831 -0.08114396 -0.18847549 -0.19596273 0.12447604 -0.06609148 -0.041902963 0.028334863 -0.018760357 -0.11490454 -0.042619605 -0.029949818 -0.10865307 -0.044634897 -0.46553063 -0.37941915 0.020173341 -0.08064641 -0.03665406 -0.13690172 -0.08264993 -0.12356932 0.14257836 0.088747784 -0.019029286 -0.03515823 -0.08979046 -0.16279522 0.15223642 -0.07553005 0.11700587
产品 0.030542828 0.07824146 0.18536918 0.14618108 -0.3094646 -0.111949295 0.008941516 0.06345108 0.104439214 0.027006127 -0.1711959 0.023786211 -0.024418216 0.22753339 -0.118480206 0.14407146 -0.25977415 0.17029709 -0.07741999 0.041436393 0.028704524 0.20651871 0.008894414 -0.06083248 0.41176382 0.1697967 -0.028607294 0.23169032 -0.05849172 -0.067610055 0.030390434 0.04530479 0.09282048 -0.15043917 0.020752836 0.020330317 0.02838806 0.004489612 0.16072625 0.029215321 0.14104639 -0.041860424 -0.12894805 0.23902473 -0.025820859 -0.17743918 0.08816409 0.082406454 0.01950704 -0.09340396
公园 0.25848922 0.06868477 -0.103828505 0.0784735 -0.08082014 0.054688897 0.18083535 -0.071749724 -0.16978912 0.018766288 0.13930026 0.007484004 -0.093768165 0.11865075 -0.05746363 -0.05735082 0.1874813 0.047224723 0.23614576 -0.06571754 0.03331895 -0.11657256 -0.070340686 0.09660581 -0.07640404 -0.06912389 0.18465012 -0.026012322 -0.0680147 0.03549445 -0.069044724 -0.14256176 -0.024919124 0.085951686 -0.29441118 -0.02671944 0.1041339 0.038393877 0.20284954 -0.074827366 -0.07503457 0.2481363 0.13977933 0.16333728 -0.28983825 0.18282634 -0.060745463 0.15857007 0.0181298 0.1705758
